tree
version=v4
num_class=4
num_tree_per_iteration=4
label_index=0
max_feature_idx=86
objective=multiclass num_class:4
feature_names=weighted_norm_avg_16h_24h_48h weighted_deriv_24h_48h_7d norm_combined_avg weighted_norm_avg_16h_24h_48h_d1_16 weighted_norm_avg_16h_24h_48h_d2_16 weighted_norm_avg_16h_24h_48h_d1_fast_16 weighted_norm_avg_16h_24h_48h_mstate_16 weighted_norm_avg_16h_24h_48h_mstate_duration_16 weighted_norm_avg_16h_24h_48h_pre_cross_warning_16 weighted_norm_avg_16h_24h_48h_pre_trough_warning_16 weighted_norm_avg_16h_24h_48h_d1_32 weighted_norm_avg_16h_24h_48h_d2_32 weighted_norm_avg_16h_24h_48h_d1_fast_32 weighted_norm_avg_16h_24h_48h_mstate_32 weighted_norm_avg_16h_24h_48h_mstate_duration_32 weighted_norm_avg_16h_24h_48h_pre_cross_warning_32 weighted_norm_avg_16h_24h_48h_pre_trough_warning_32 weighted_norm_avg_16h_24h_48h_d1_96 weighted_norm_avg_16h_24h_48h_d2_96 weighted_norm_avg_16h_24h_48h_d1_fast_96 weighted_norm_avg_16h_24h_48h_mstate_96 weighted_norm_avg_16h_24h_48h_mstate_duration_96 weighted_norm_avg_16h_24h_48h_pre_cross_warning_96 weighted_norm_avg_16h_24h_48h_pre_trough_warning_96 weighted_norm_avg_16h_24h_48h_d1_192 weighted_norm_avg_16h_24h_48h_d2_192 weighted_norm_avg_16h_24h_48h_d1_fast_192 weighted_norm_avg_16h_24h_48h_mstate_192 weighted_norm_avg_16h_24h_48h_mstate_duration_192 weighted_norm_avg_16h_24h_48h_pre_cross_warning_192 weighted_norm_avg_16h_24h_48h_pre_trough_warning_192 weighted_deriv_24h_48h_7d_d1_16 weighted_deriv_24h_48h_7d_d2_16 weighted_deriv_24h_48h_7d_d1_fast_16 weighted_deriv_24h_48h_7d_mstate_16 weighted_deriv_24h_48h_7d_mstate_duration_16 weighted_deriv_24h_48h_7d_pre_cross_warning_16 weighted_deriv_24h_48h_7d_pre_trough_warning_16 weighted_deriv_24h_48h_7d_d1_32 weighted_deriv_24h_48h_7d_d2_32 weighted_deriv_24h_48h_7d_d1_fast_32 weighted_deriv_24h_48h_7d_mstate_32 weighted_deriv_24h_48h_7d_mstate_duration_32 weighted_deriv_24h_48h_7d_pre_cross_warning_32 weighted_deriv_24h_48h_7d_pre_trough_warning_32 weighted_deriv_24h_48h_7d_d1_96 weighted_deriv_24h_48h_7d_d2_96 weighted_deriv_24h_48h_7d_d1_fast_96 weighted_deriv_24h_48h_7d_mstate_96 weighted_deriv_24h_48h_7d_mstate_duration_96 weighted_deriv_24h_48h_7d_pre_cross_warning_96 weighted_deriv_24h_48h_7d_pre_trough_warning_96 weighted_deriv_24h_48h_7d_d1_192 weighted_deriv_24h_48h_7d_d2_192 weighted_deriv_24h_48h_7d_d1_fast_192 weighted_deriv_24h_48h_7d_mstate_192 weighted_deriv_24h_48h_7d_mstate_duration_192 weighted_deriv_24h_48h_7d_pre_cross_warning_192 weighted_deriv_24h_48h_7d_pre_trough_warning_192 norm_combined_avg_d1_16 norm_combined_avg_d2_16 norm_combined_avg_d1_fast_16 norm_combined_avg_mstate_16 norm_combined_avg_mstate_duration_16 norm_combined_avg_pre_cross_warning_16 norm_combined_avg_pre_trough_warning_16 norm_combined_avg_d1_32 norm_combined_avg_d2_32 norm_combined_avg_d1_fast_32 norm_combined_avg_mstate_32 norm_combined_avg_mstate_duration_32 norm_combined_avg_pre_cross_warning_32 norm_combined_avg_pre_trough_warning_32 norm_combined_avg_d1_96 norm_combined_avg_d2_96 norm_combined_avg_d1_fast_96 norm_combined_avg_mstate_96 norm_combined_avg_mstate_duration_96 norm_combined_avg_pre_cross_warning_96 norm_combined_avg_pre_trough_warning_96 norm_combined_avg_d1_192 norm_combined_avg_d2_192 norm_combined_avg_d1_fast_192 norm_combined_avg_mstate_192 norm_combined_avg_mstate_duration_192 norm_combined_avg_pre_cross_warning_192 norm_combined_avg_pre_trough_warning_192
feature_infos=[-3.4589558265600147:3.7454293730227963] [-0.057313468776117267:0.041891509959179188] [-4.12602665393457:3.7220636314908004] [-0.19671169201814293:0.1552413014535145] [-0.011349106564573108:0.011980168680737244] [-0.27228263155928478:0.49346579434211602] [0:8] [1:143] [0:1] [0:1] [-0.12790758145922118:0.11020957050554317] [-0.0047138148974599035:0.0046376530834992364] [-0.25626893924926231:0.25167498537452937] [0:8] [1:131] [0:1] [0:1] [-0.039678475518435827:0.047091804192783554] [-0.00077511585277642385:0.0007562630691224471] [-0.21446720827754273:0.17019193909126887] [0:8] [1:153] [0:1] [0:1] [-0.027728660209420098:0.026819921875098685] [-0.0002319365646218033:0.00027266134537346209] [-0.1564792537008787:0.12697985478596349] [0:8] [1:150] [0:1] [0:1] [-0.0011755771979177247:0.0010110539388535253] [-6.1035278408135034e-05:5.3416309169274686e-05] [-0.002058463123767635:0.0018309611942394569] [0:8] [1:168] [0:1] [0:1] [-0.0010211934038404707:0.00086838445828349778] [-3.0973666207747046e-05:3.4169696074576977e-05] [-0.0016470697856196077:0.0011300730643428582] [0:8] [1:167] [0:1] [0:1] [-0.00053027721255399568:0.00045864235506059653] [-6.8575451137781375e-06:8.4199207890258374e-06] [-0.0012332730736195564:0.0010026969418658418] [0:8] [1:141] [0:1] [0:1] [-0.00029487598892350065:0.00032755600281348957] [-2.2324793367866601e-06:3.2405889807206956e-06] [-0.0011143387016105679:0.00097327658741869661] [0:8] [1:141] [0:1] [0:1] [-0.34417163287028313:0.3467180782302306] [-0.039774531982756045:0.038635306017932664] [-2.1849309738452201:2.1671610631382849] [0:8] [1:13] [0:1] [0:1] [-0.17202292036435377:0.18109282588018169] [-0.0099714589181232258:0.010010166768320596] [-1.2658440788874468:1.3129157668691032] [0:8] [1:15] [0:1] [0:1] [-0.060929330259208055:0.061082617306815058] [-0.0011026577755784163:0.0011352262847696623] [-0.41417336478519245:0.43789641630001858] [0:8] [1:22] [0:1] [0:1] [-0.02946167206204026:0.030980197887993121] [-0.0002806558229231253:0.00028087423035186792] [-0.23765031357161859:0.2298115891557686] [0:8] [1:28] [0:1] [0:1]
tree_sizes=6794 6043 5854 6491 6967 6322 5893 6573 6989 6540 6131 6832 6998 6529 6278 6137 7020 6333 6162 6598 6982 6003 7019 6331 6996 6763 6003 6274 7042 6786 6128 6489 6991 6566 6367 6677 6981 6537 6704 6949 7031 6570 6673 6610 7009 6801 6493 6500 6982 6799 6373 6592 6978 6986 6451 6274 7013 6870 6235 6711 7027 6978 6696 6812 7002 6999 7024 7068 7008 6993 6701 7026 7018 7012 6814 7023 7050 6682 7043 7027 7015 6985 6276 6894 7030 6992 6793 6791 7034 6550 6501 7024 7034 6969 6363 7037 7021 6994 7038 7028 7000 6996 6912 7043 7009 6991 6841 6803 7017 7019 7021 7032 7025 6914 6997 7008 7025 7026 7044 7008 7036 6986 7046 7049 7025 6987 7022 6396 7027 7029 7022 7018 7029 7025 6940 7024 7027 7017 7028 7035 7078 6991 6710 7076 7000 7023 7027 7047 7052 6788 7028 7051 7014 6893 7050 7035 7039 6998 7028 7053 7030 7017 6997 7060 7041 6992 7022 7043 7025 7022 7040 7034 7001 6990 7056 7067 7018 7044 7045 7024 7058 7027 7033 7070 7014 6984 7040 7036 7051 7020 7077 7057 7042 7019 7047 7046

Tree=0
num_leaves=63
num_cat=0
split_feature=48 33 33 41 5 10 19 0 38 0 19 33 38 47 47 0 45 0 17 2 33 4 5 33 56 0 45 5 12 24 73 25 17 38 10 24 60 18 5 74 25 0 39 38 42 0 60 11 0 33 0 46 19 0 11 76 26 45 2 19 45 2
split_gain=901.196 407.153 458.505 182.743 166.351 186.321 106.975 101.982 80.3018 79.58 77.6798 76.1064 57.0018 55.3181 128.979 53.5918 58.1727 41.3693 39.2021 43.286 49.2762 41.8336 39.0638 32.3434 30.9689 30.4323 36.8277 30.3017 45.176 28.7702 28.6888 26.4925 25.6793 25.3558 22.1496 22.6061 21.9906 21.775 22.9568 20.6858 20.1782 19.0625 19.0576 18.4267 16.7597 15.8853 15.1473 12.7376 14.5826 10.7229 10.3052 9.86846 9.10432 8.58058 7.64745 10.4552 7.37429 7.23589 7.13468 6.0565 5.31599 4.95168
threshold=1.0000000180025095e-35 -0.00019547793189889331 0.00018747531214612201 1.0000000180025095e-35 -0.032245135499912224 0.03220604225181737 0.027915182605605045 -1.6012855734742675 -0.00020626319681120111 1.5802706873406955 -0.025041999190354117 -7.86440589146326e-05 0.00015339141322554903 0.00010492259748093447 -0.00014894052839059006 -1.76419278678255 6.2169133961690096e-05 -1.8035807226069496 -0.0090890627690558678 0.495431729145483 -0.0001788926268927503 -0.00036006428167794459 -0.0051690317724250303 0.00033291582285019475 19.500000000000004 1.5332797894515768 -8.6044260468288314e-05 -0.028412202979530368 0.0254946850825656 0.0075240303456302355 0.034334894297466161 7.2212329712424442e-05 0.0004473839788494694 0.00012999515255541417 -0.029592009133795987 0.013077054754014746 -0.0049747621332651201 0.00033119009948739687 -0.015570698883258237 -0.00021512945394950301 -8.7999134705286309e-05 0.33708884019942853 -2.7014299861518838e-06 2.5989882260910299e-05 36.500000000000007 0.31532770374908153 -0.0028082546648320801 -0.00051994381171504027 2.0423337751026076 -4.8594752520976843e-05 -0.44252171460826184 -3.763583785160803e-07 0.042833547384900431 -0.53831091795427444 0.00064228244140635134 4.5000000000000009 -0.030095314408538229 -9.8589491028095138e-05 -0.096808150207813345 -0.040894800095216281 -0.00012592175418707006 0.48054240300775364
decision_type=2 2 2 2 2 2 2 2 2 2 2 2 2 2 2 2 2 2 2 2 2 2 2 2 2 2 2 2 2 2 2 2 2 2 2 2 2 2 2 2 2 2 2 2 2 2 2 2 2 2 2 2 2 2 2 2 2 2 2 2 2 2
left_child=1 10 4 7 11 8 23 57 -6 12 59 39 17 14 50 60 25 -10 21 20 29 -9 -11 24 -4 26 40 -28 46 -20 34 36 -12 -7 -19 37 -22 38 42 -3 -17 -21 -36 -27 -14 54 -29 48 -18 -44 -5 -47 -8 -15 -40 -56 -52 -2 -59 -1 -16 -62
right_child=3 2 6 13 5 33 52 18 9 22 32 -13 44 53 15 16 47 30 19 41 31 -23 -24 -25 -26 43 27 28 -30 -31 -32 -33 -34 -35 35 -37 -38 -39 45 -41 -42 -43 49 -45 -46 51 -48 -49 -50 -51 56 -53 -54 -55 55 -57 -58 58 -60 -61 61 -63
leaf_value=-1.4334883076336997 -1.4347884597870886 -1.4177681010701288 -1.3136531937176026 -1.4343060259217906 -1.3860345101590881 -1.3638741928859834 -1.4061795197404037 -1.3807672859627875 -1.355285751674463 -1.3139889456124718 -1.3963113438254382 -1.3222853232670251 -1.367142082659639 -1.4115976325987274 -1.4362004507032184 -1.4224604311367985 -1.3783543845108861 -1.3262996886517762 -1.4080021569215957 -1.3766880978535916 -1.3825870773458593 -1.3078181982271684 -1.3925165291582278 -1.3956456695181516 -1.3804018545045176 -1.3691104972241859 -1.3902532645372541 -1.3398652082183107 -1.3904381897805007 -1.3538414234948775 -1.3431258330379037 -1.2925645171766653 -1.3407197315250092 -1.4265306395401844 -1.3366990211782266 -1.3278385082133881 -1.3248591230078961 -1.3186113273606517 -1.2558406857744504 -1.3716068692388999 -1.3716686445536674 -1.4154869017551797 -1.3092688267736423 -1.4198865576138977 -1.3142632078836907 -1.2728948482351967 -1.2929344355720274 -1.4227934562445363 -1.4195008732128529 -1.2643512122153848 -1.4290376829157194 -1.3071223642220713 -1.4327578002563608 -1.4338625207242548 -1.2583529649023917 -1.3021982269365298 -1.3969939589239138 -1.4258815447609017 -1.3942768002543702 -1.4147118927380229 -1.4277580295605985 -1.4018802906916941
leaf_weight=132.61879096925259 57.438362210988998 58.565205164253712 41.384002961218357 371.98444256186485 31.27179030328989 30.691605098545551 44.801661714911461 34.545251578092575 25.159330457448959 28.813819251954556 43.419452838599682 48.284790217876434 34.212951704859734 48.866833947598934 53.123851299285889 29.771760433912277 49.660536207258701 33.163338102400303 62.84535675495863 52.036448463797569 32.298573784530163 45.537349574267864 34.984352849423885 45.217576220631599 29.93627592921257 28.534103065729141 30.599607683718204 30.222255535423756 25.381780333817005 40.065720736980438 23.834406711161137 24.929968908429146 39.677035689353943 33.861921668052673 25.569165222346783 27.424436420202255 33.649209231138229 34.979580476880074 140.6442803889513 41.314531482756138 56.515066213905811 80.58265708386898 24.846924982964993 47.478799790143967 26.704283431172371 48.400436878204346 40.941622510552406 92.497028298676014 37.877710707485676 30.794988110661507 37.156429372727871 39.760677620768547 116.74827089905739 404.85026581585407 30.671251580119133 26.271504156291485 34.826334275305271 37.625753872096539 34.025153920054436 64.444529369473457 38.745092511177063 35.633444458246231
leaf_count=465 325 248 351 1586 231 246 271 221 176 248 253 387 247 275 290 190 367 275 378 306 230 380 231 244 207 216 154 240 165 317 181 224 271 232 202 236 289 295 1337 282 385 494 199 331 232 448 368 608 210 282 209 355 451 2081 291 224 200 188 244 308 229 224
internal_value=-1.38647 -1.35619 -1.34311 -1.40792 -1.32543 -1.31565 -1.39907 -1.38286 -1.30781 -1.30397 -1.41028 -1.37376 -1.29806 -1.4169 -1.41055 -1.39536 -1.38755 -1.29261 -1.37057 -1.37826 -1.36321 -1.33924 -1.35699 -1.36257 -1.34162 -1.37368 -1.364 -1.3469 -1.33317 -1.38691 -1.28938 -1.3364 -1.36974 -1.39675 -1.28662 -1.28357 -1.35308 -1.28056 -1.27696 -1.39868 -1.38922 -1.40027 -1.30067 -1.40083 -1.34388 -1.27025 -1.31277 -1.40986 -1.39618 -1.28424 -1.43095 -1.28822 -1.4254 -1.43147 -1.26228 -1.2784 -1.41357 -1.42156 -1.41091 -1.42737 -1.4241 -1.4154
internal_weight=3468.72 1438.47 1158.31 2030.25 880.226 732.061 278.088 535.58 667.508 636.236 280.16 148.165 572.438 1494.67 1040.95 596.983 469.48 511.52 406.491 326.408 193.789 80.0826 63.7982 116.538 71.3203 289.445 213.432 127.145 96.5457 102.911 486.361 90.8778 83.0965 64.5535 462.527 429.363 65.9478 401.939 366.959 99.8797 86.2868 132.619 81.2111 76.0129 60.9172 285.748 71.1639 180.035 87.5382 55.6419 443.967 88.1611 161.55 453.717 197.587 56.9428 71.9828 129.089 71.6509 197.063 127.502 74.3785
internal_count=21830 9906 8609 11924 7085 6168 1524 3596 5690 5459 1297 917 4980 8328 5972 3977 3234 4501 2839 2238 1438 601 479 802 558 2049 1502 927 773 695 4325 743 524 478 4144 3869 519 3633 3338 530 575 800 683 547 479 2655 608 1185 577 481 1995 803 722 2356 1852 515 409 757 432 773 743 453
is_linear=0
shrinkage=1


Tree=1
num_leaves=56
num_cat=0
split_feature=1 26 45 32 1 17 32 38 5 28 24 5 39 40 0 5 40 5 4 40 12 17 4 0 0 3 47 35 1 40 84 14 0 32 84 1 3 45 39 1 31 66 31 0 45 84 5 68 1 1 80 5 19 26 1
split_gain=2104.87 665.214 554.372 216.038 190.558 147.185 130.671 116.34 105.463 93.7056 92.8901 78.6841 67.4048 103.222 63.0237 84.2684 79.904 53.3083 45.9391 45.2634 41.2835 32.7114 32.8642 32.3373 31.3593 30.0187 25.9858 23.5612 21.4041 48.6265 20.6431 16.9301 15.1096 13.4696 11.538 11.139 23.3064 13.2538 10.7957 10.7524 10.2575 6.74619 5.89257 13.3585 3.74739 3.95295 3.04118 2.20453 2.17626 1.64962 1.22275 0.442235 0.285153 0.122907 0.428223
threshold=0.0045796398672881015 0.024824728209182936 -2.3152930633738154e-05 1.4589285637113551e-05 0.0078451743298617437 0.016273198214087618 1.3984476353081472e-05 0.00020253401281874082 -0.011202592950411134 56.500000000000007 0.010665440807462135 0.026380286584518995 2.1451675255810185e-06 0.00018667941068894504 -0.53831091795427444 0.091136035249077388 4.1742130615195202e-05 -0.019751511550512132 0.002212964410133481 -6.8877345298312131e-05 -0.015640156266259166 -0.010765948922166851 0.0010367780326289938 0.25850312672049491 -1.6012855734742675 0.033049378322502133 1.4502446791497757e-05 15.500000000000002 0.001264737136886885 3.8189028697061766e-05 4.5000000000000009 4.5000000000000009 0.90092762845845564 -2.187368265312614e-06 2.5000000000000004 0.011690427490159531 -0.0050595234888768303 0.00020196564272199712 1.6640282725469914e-06 -0.0019609413123423138 -2.0936749620849011e-05 0.078551482536739367 5.4342566521003566e-05 -0.14847196585166886 -2.9029144170578543e-06 2.5000000000000004 0.021729950487254072 -0.15720201314674617 0.010142888510509183 -0.0029479269333200736 -0.0033122828267971778 0.01759970771313191 -0.015109533394350365 0.01063199666136092 -0.0051053934869158216
decision_type=2 2 2 2 2 2 2 2 2 2 2 2 2 2 2 2 2 2 2 2 2 2 2 2 2 2 2 2 2 2 2 2 2 2 2 2 2 2 2 2 2 2 2 2 2 2 2 2 2 2 2 2 2 2 2
left_child=1 5 10 4 8 11 7 14 34 12 20 28 13 17 -3 16 -16 -6 26 -7 50 -22 -23 -21 -13 -9 -10 41 42 44 48 33 -28 40 -4 36 -33 47 -18 -29 -19 -26 53 46 52 -46 49 -37 -14 51 -2 -44 -30 -1 -55
right_child=2 6 3 -5 9 19 -8 25 18 -11 -12 24 30 -15 15 -17 38 31 -20 23 21 22 -24 -25 27 -27 32 39 29 -31 -32 35 -34 -35 -36 37 -38 -39 -40 -41 -42 -43 43 -45 45 -47 -48 -49 -50 -51 -52 -53 -54 54 -56
leaf_value=-1.4362361842694995 -1.4362120789686832 -1.4055459586438404 -1.3686328059210939 -1.3865800287216694 -1.3298746745914654 -1.4152287041351101 -1.4103352403868534 -1.3267989953888537 -1.3357029526415709 -1.3570582074500082 -1.3159956596305327 -1.4322207260187398 -1.2557934715836787 -1.3545464628683617 -1.3751907068412657 -1.4037891758214605 -1.3085422563420237 -1.2986449269386375 -1.3726612648958045 -1.3896682815974435 -1.4237697243527709 -1.3373567861297746 -1.3987814555161895 -1.3295300914673043 -1.3892403128709021 -1.2633460813606001 -1.3078906250807936 -1.3807028585256844 -1.4362383204089109 -1.3718606219683827 -1.289409778147097 -1.3101858179445522 -1.2639916219605312 -1.3199969895057837 -1.4073583951665958 -1.2596947938211898 -1.2482738394650339 -1.2865740950739695 -1.2681708395228679 -1.3351522927201429 -1.2552092043998937 -1.4179806966772925 -1.4359756997557414 -1.3950425921005596 -1.4067333337252932 -1.4318665711695215 -1.4160737986603191 -1.2400115881490532 -1.2372337153620008 -1.4242706511191352 -1.423890197047766 -1.4286883901882483 -1.4297220908507058 -1.4362188543322081 -1.4284585145846753
leaf_weight=1020.1082910522819 60.646609775722027 47.813358172774315 35.738813817501068 86.961596816778183 48.747075833380222 46.603460676968098 71.316853418946266 28.750904358923435 43.468237303197384 44.915941156446934 32.262531250715256 47.849501743912697 29.753709256649017 57.5023383051157 38.250239618122578 37.695490077137947 29.948745861649513 29.170883975923061 30.743695639073849 38.495129697024822 43.717558830976486 39.79940427094698 47.871206298470497 53.173539623618126 47.389633342623711 54.639612585306168 43.560262180864811 26.890632107853889 89.077936574816704 45.973840080201626 30.292302913963795 33.790095552802086 37.170685708522797 28.466255135834217 41.417857065796852 27.487898610532284 28.415137901902199 26.992596030235291 40.037877261638641 24.950607016682625 27.555281601846218 35.805389761924744 186.22630332410336 27.704374857246876 31.342055879533291 31.732853546738625 29.73000130802393 64.339443616569042 81.060509629547596 45.543063506484032 33.183117069303989 29.155868716537952 29.620211891829967 66.095569059252739 31.767549343407154
leaf_count=5831 341 310 248 275 333 320 254 194 317 249 259 294 206 229 309 117 212 207 124 317 372 315 185 367 302 393 304 208 497 357 183 274 271 184 228 200 213 215 305 205 199 176 1324 194 269 233 195 476 597 374 196 193 265 352 263
internal_value=-1.38655 -1.41371 -1.3307 -1.31178 -1.30355 -1.4249 -1.35 -1.33447 -1.34166 -1.28773 -1.39521 -1.42862 -1.28167 -1.29287 -1.35576 -1.33944 -1.31703 -1.28163 -1.31789 -1.37515 -1.40659 -1.38849 -1.37087 -1.35476 -1.39748 -1.28513 -1.30435 -1.38515 -1.43204 -1.41778 -1.25218 -1.27282 -1.28755 -1.29151 -1.38942 -1.26408 -1.28173 -1.25494 -1.28531 -1.35872 -1.27735 -1.40163 -1.4343 -1.42825 -1.42939 -1.41943 -1.43141 -1.24576 -1.24209 -1.43315 -1.4319 -1.43501 -1.43465 -1.43602 -1.43375
internal_weight=3468.72 2333.69 1135.03 877.551 790.589 1985.24 348.453 277.136 232.1 558.489 257.48 1846.96 513.574 372.467 193.746 145.932 108.237 314.965 154.943 138.272 225.218 131.388 87.6706 91.6687 182.886 83.3905 124.199 135.036 1664.08 227.747 141.107 266.218 80.7309 85.1924 77.1567 181.025 62.2052 118.82 69.9866 51.8412 56.7262 83.195 1436.33 318.36 181.773 63.0749 290.655 91.8273 110.814 260.925 93.8297 215.382 118.698 1117.97 97.8631
internal_count=21830 14630 7200 5532 5257 12536 2094 1840 1492 3765 1668 11532 3516 2530 1253 943 826 2301 1016 1004 1409 872 500 684 1185 587 892 891 10347 1621 986 1968 575 590 476 1378 487 891 517 413 406 478 8726 2280 1264 502 2086 676 803 1891 537 1517 762 6446 615
is_linear=0
shrinkage=1


Tree=2
num_leaves=54
num_cat=0
split_feature=1 26 45 5 38 5 4 1 38 5 0 18 45 1 0 1 46 40 5 17 45 39 39 17 76 0 38 5 4 5 12 83 0 21 17 5 18 0 46 0 38 38 12 0 45 39 74 5 0 26 38 38 47
split_gain=1971.57 679.605 432.832 257.282 177.964 175.724 116.665 134.054 125.222 87.7241 84.9251 84.223 80.6988 79.0767 68.1244 58.2633 58.1313 50.5871 55.0894 129.64 44.7461 55.0372 43.6986 40.7286 37.442 29.1476 25.903 25.2358 23.2737 21.5608 20.3663 20.1918 19.1364 18.9603 17.6676 15.9741 15.8668 9.48839 6.77061 7.02689 3.61199 3.17003 3.57208 3.05523 2.03642 6.08695 1.43206 1.20745 3.31797 0.534189 0.196064 0.061082 0.0156331
threshold=-0.0038300905630696195 -0.01921217081509052 2.6956039349742283e-05 -0.067343192200001442 -0.00010013159355102222 0.04139765731591289 -0.00065610201103951163 -0.0091614082636358261 -8.2409019888197754e-05 -0.018137900443850438 -2.3013250869689856 -0.00020746582199283282 -0.00021663732477918742 0.00059245927325716867 -1.0158319842508361 0.001264737136886885 -2.6155672382889219e-07 -0.00035231886235994198 0.0173117058448129 -0.0066820933307074866 8.0417852226711404e-06 -1.5512266508735491e-06 -5.1421038109038014e-06 -0.021927523142848491 5.5000000000000009 -1.48257220885861 -4.36272441746527e-05 -0.016493167777735959 -0.00030328383154981951 -0.039240620592597079 -0.014705799423122929 3.5000000000000004 -0.10722669571469982 11.500000000000002 -0.021527015723720202 0.0022856310002370987 -0.00013022925494384285 -1.6724310604723247 -3.4143471349250559e-06 -1.3205514611205895 -0.00019829124305220059 4.8237493114379265e-05 -0.024050829491488717 1.0646018550014149 -5.3732249402509129e-05 2.9983484923086718e-06 -0.00014188621861450248 -0.011911247553391012 0.67928050780274052 0.01063199666136092 -0.00010861515438032279 0.00045208347837899038 -0.00013215695564598699
decision_type=2 2 2 2 2 2 2 2 2 2 2 2 2 2 2 2 2 2 2 2 2 2 2 2 2 2 2 2 2 2 2 2 2 2 2 2 2 2 2 2 2 2 2 2 2 2 2 2 2 2 2 2 2
left_child=2 4 3 -1 11 6 10 12 23 20 -5 22 24 -13 31 26 33 -14 27 -20 21 -3 -2 -9 -8 -10 -6 -19 -24 -15 -16 -4 -22 -12 -11 -27 -23 49 -36 -40 -41 42 -34 -17 45 -42 -32 48 -46 -29 -49 52 -52
right_child=1 9 14 5 15 -7 7 8 25 34 16 13 17 29 30 43 -18 18 19 -21 32 36 28 -25 -26 35 -28 37 -30 -31 46 -33 41 -35 38 -37 -38 -39 39 40 44 -43 -44 -45 47 -47 -48 50 -50 -51 51 -53 -54
leaf_value=-1.4000244172506278 -1.2601352546988409 -1.3366510137454244 -1.3433558305550444 -1.4027599408955445 -1.3321448697544458 -1.421507093135721 -1.2956758703188702 -1.2536076361386783 -1.3387119596821775 -1.3959198340254648 -1.2769667192468603 -1.3070583528631414 -1.3285031803271681 -1.3564569277455867 -1.3892391011035274 -1.4159820312853779 -1.3590804505471135 -1.2943901693222217 -1.2487231711817877 -1.3659458985682063 -1.3875357108861064 -1.3802491133889487 -1.3529783956390597 -1.3221104493698208 -1.3566115251391864 -1.3663154085542808 -1.3933424466754125 -1.2392659301661288 -1.2941291544377824 -1.4017908496617617 -1.4223308143428828 -1.3934744107679531 -1.407509936880279 -1.3227601683179147 -1.4108113319260251 -1.4176753573828129 -1.4250544825311537 -1.2670057853901648 -1.411759096797784 -1.417440113108805 -1.413866900068826 -1.4362198480035089 -1.4315407587418667 -1.4340563177086663 -1.415254171748594 -1.4362407550316743 -1.4362248754953475 -1.4311169305338167 -1.4351784271068171 -1.2509482142483819 -1.4332004221643486 -1.4328461783283799 -1.4362594554662005
leaf_weight=94.146082073450089 42.908352620899677 46.038921296596527 50.369128659367561 44.464366674423218 33.019003309309483 35.911448881030083 53.999168455600739 39.673077039420605 37.791742824018002 32.303098887205124 48.230804085731506 53.721796557307243 38.23325502872467 47.379702687263489 37.594181634485722 52.086084321141243 70.292065769433975 35.359527803957462 54.022386439144611 41.874596759676933 36.277328737080097 35.423425197601318 35.341563187539577 48.587818339467049 47.471821129322052 27.463414631783962 36.138191409409046 121.35002145916224 32.23868603259325 58.501285262405872 26.924700774252415 33.351223058998585 29.180080316960812 43.673562176525593 32.973400019109249 33.500115275382996 44.516256012022495 53.452058210968971 35.51569376885891 31.435103669762611 45.780837014317513 67.041346535086632 33.590497106313705 43.729254692792892 28.158799670636654 93.246013566851616 71.900896720588207 30.832549378275871 87.802728876471519 31.568662002682686 31.60432180762291 37.346242673695087 1033.3832494914532
leaf_count=247 277 320 290 109 246 148 278 267 281 293 304 335 162 227 220 308 296 188 348 219 246 232 193 317 189 222 243 783 229 399 241 282 191 255 258 238 257 357 274 243 398 329 266 265 198 663 554 256 636 211 257 218 6567
internal_value=-1.38646 -1.41424 -1.33532 -1.32136 -1.35813 -1.3132 -1.30873 -1.29852 -1.33445 -1.42771 -1.34157 -1.33315 -1.28446 -1.35641 -1.39879 -1.39904 -1.3248 -1.27377 -1.26759 -1.29984 -1.40261 -1.38014 -1.2996 -1.2912 -1.32413 -1.37315 -1.36409 -1.25484 -1.32481 -1.3815 -1.42057 -1.36331 -1.41965 -1.29864 -1.43254 -1.39454 -1.40522 -1.24811 -1.43333 -1.43384 -1.43439 -1.42861 -1.42042 -1.42427 -1.43477 -1.4289 -1.43248 -1.43542 -1.43037 -1.24159 -1.43593 -1.43606 -1.43617
internal_weight=3468.72 2247.51 1221.21 1001.07 435.064 906.92 871.008 664.348 187.016 1812.45 206.661 270.091 477.331 159.603 220.14 164.973 162.196 375.861 337.627 95.897 292.068 125.979 110.489 88.2609 101.471 98.7553 69.1572 241.73 67.5802 105.881 136.42 83.7204 166.089 91.9044 1520.38 60.9635 79.9397 206.371 1488.08 1455.11 1419.59 129.812 62.7706 95.8153 1388.15 139.027 98.8256 1249.13 115.962 152.919 1133.17 1102.33 1064.99
internal_count=21830 14824 7006 5419 2722 5172 5024 4060 1325 12102 964 1660 2735 961 1587 1062 855 2268 2106 567 1841 809 699 584 467 741 489 1539 422 626 1015 572 1032 559 10261 460 489 1351 9968 9710 9436 786 457 573 9193 1061 795 8132 834 994 7298 7042 6824
is_linear=0
shrinkage=1


Tree=3
num_leaves=60
num_cat=0
split_feature=33 33 4 12 59 12 0 33 39 24 11 33 66 39 32 0 75 75 66 7 54 38 82 1 4 1 11 39 19 54 19 61 7 0 32 32 24 12 84 1 39 75 74 59 31 74 4 18 39 83 67 31 34 46 82 53 19 61 82
split_gain=888.599 911.575 380.977 287.727 273.638 225.083 137.999 128.926 175.591 124.923 112.016 86.7677 81.2653 79.9242 115.783 72.1779 51.1483 53.5448 45.1057 43.974 37.3584 35.3338 33.7412 36.0707 29.6329 28.6028 33.3115 28.2629 23.9483 20.9411 18.161 18.0468 14.2759 19.097 46.8149 27.5544 66.0829 15.4778 13.0506 12.5527 9.36659 6.11523 5.18876 4.72423 4.21635 2.92414 3.1782 2.63891 2.40042 2.06807 1.56485 5.09859 1.32138 1.31648 1.28384 0.781062 0.147849 0.130245 0.0425615
threshold=-0.00033552020651879264 0.00025126007932624778 0.00076406818423152025 -0.027557562439931935 -0.035494391241606749 -0.050389752333324982 -0.30706487074155842 -7.86440589146326e-05 -3.6519230103682556e-06 -0.0036803400567735531 0.0027652193484706592 0.00019072069218865984 0.056185204188456406 5.322716665194913e-06 2.4310778725443981e-05 1.4439339564741764 -0.23408156063793162 0.29424136536040318 0.067171193527399378 8.5000000000000018 -0.00021367337042578556 0.00021035375276987661 0.0209112709589435 -0.006044025926569053 -0.0033855998020601995 -0.018256145742247119 0.00042949982812001149 1.1258856751593393e-06 -0.018907937017030602 -0.00024046448860210403 -0.050181313730405637 -0.74902633513138916 10.500000000000002 2.1403182502220441 -7.2868693218844856e-07 -7.1287399529221124e-06 -0.008430920914075473 0.027047654880489828 5.5000000000000009 0.0041531472797055576 8.0725301404493568e-06 -0.20610963171456184 0.00031647137248090064 0.071101363155454803 0.00023995313223518642 0.00054424591844065052 -0.0017073979337957133 0.00034373245565212472 -2.2862373796599466e-06 3.5000000000000004 0.0023757530715289034 5.6306421441164904e-05 5.5000000000000009 -7.8213646751311544e-07 0.12693585270001723 -8.8985809816177322e-07 -0.02306298938868416 0.52869584385531387 -0.013358669297134649
decision_type=2 2 2 2 2 2 2 2 2 2 2 2 2 2 2 2 2 2 2 2 2 2 2 2 2 2 2 2 2 2 2 2 2 2 2 2 2 2 2 2 2 2 2 2 2 2 2 2 2 2 2 2 2 2 2 2 2 2 2
left_child=5 3 13 4 7 29 12 8 -2 28 11 16 -4 -3 40 18 19 24 43 -5 -11 -8 23 -6 -18 26 -26 -10 -7 -1 -25 -27 33 35 -35 36 -33 41 49 42 -15 -37 -39 58 45 46 -34 50 -24 -38 56 52 -52 -42 55 -48 -43 -57 -13
right_child=1 2 6 10 22 9 21 -9 27 20 -12 15 -14 14 -16 -17 17 -19 -20 -21 -22 -23 48 30 25 31 -28 -29 -30 -31 -32 32 44 34 -36 37 38 39 -40 -41 53 47 -44 -45 -46 -47 54 -49 -50 -51 51 -53 -54 -55 -56 57 -58 -59 -60
leaf_value=-1.2874755065501298 -1.3989908453054727 -1.3417118428060739 -1.4021859795219389 -1.3576937101142725 -1.3489778703412574 -1.295404084034981 -1.2651484049128641 -1.409883963057621 -1.311492409411686 -1.4239866821786293 -1.3272233471783859 -1.4361490462146895 -1.3069265196366435 -1.400948248237583 -1.3209768643630708 -1.3400635717761169 -1.3832257354058322 -1.3557431382462444 -1.3629494571607677 -1.4320845278381764 -1.3540878809344055 -1.3081453207956173 -1.4362312415183789 -1.3800558434744647 -1.4267731366508198 -1.3869131898643081 -1.3698180166319387 -1.26727850011468 -1.3398824690496833 -1.2521180822453324 -1.4290144952912642 -1.347292923035404 -1.4161870518838366 -1.4330326776742779 -1.3493221692006476 -1.4081735083616049 -1.4362257505482985 -1.4361616382108382 -1.3969835379657987 -1.3879021022301159 -1.4229529817706115 -1.4310403436560459 -1.4064664637536566 -1.4086866453604183 -1.4121649537441319 -1.4190769871027222 -1.4264335918180271 -1.4201238764638484 -1.4189863130871088 -1.4205230293215008 -1.4362512534520553 -1.4104310231316703 -1.4241449277284512 -1.436223830135031 -1.4249130674008654 -1.4362831357790495 -1.4362794559185463 -1.4314720772424228 -1.4313732653871531
leaf_weight=92.905213348567486 48.836877629160881 76.944559939205647 42.746187947690487 58.639677263796329 33.316682405769825 62.820236317813396 151.68687036633492 46.043893799185753 73.848787978291512 49.612031035125256 35.553558558225632 34.311728820204735 46.84667607396841 30.944731369614601 33.622287265956402 61.751540794968605 45.73417130112648 30.096391201019287 41.337035030126572 29.917401731014252 30.964753456413746 70.970257021486759 79.134288541972637 30.202176883816719 51.413537874817848 29.494557693600655 51.095638059079647 72.456194899976254 59.11766342818737 79.663277447223663 50.602054819464684 36.775031805038452 24.292698606848717 38.643303923308849 29.262534812092781 25.973431810736656 72.791649267077446 37.576902285218239 37.075869716703892 37.623335413634777 27.566089622676373 23.951721295714378 24.481253735721111 26.458051770925522 25.25658368319273 35.436168037354946 25.023391611874104 37.736808553338051 28.237776428461075 30.998936027288437 115.93065769225359 28.249286264181137 30.280333571135998 70.80652067065239 32.330748230218887 445.94097529351711 335.70501574128866 26.10505149513483 25.578872345387936
leaf_count=270 302 369 283 336 150 199 383 349 289 347 142 265 170 204 126 285 292 171 230 245 165 264 566 174 330 197 255 185 247 162 379 181 188 292 145 200 595 329 244 238 185 185 180 183 172 271 193 281 207 233 923 219 241 529 250 3612 2815 208 200
internal_value=-1.3857 -1.39451 -1.33629 -1.40716 -1.37151 -1.31303 -1.29989 -1.33467 -1.31692 -1.34881 -1.4151 -1.41663 -1.35234 -1.38368 -1.40351 -1.3844 -1.41993 -1.42179 -1.40586 -1.38285 -1.39712 -1.27881 -1.41163 -1.39269 -1.42293 -1.42401 -1.3984 -1.28953 -1.31691 -1.27109 -1.41073 -1.42566 -1.42639 -1.42252 -1.39696 -1.4245 -1.4069 -1.42898 -1.42248 -1.4107 -1.425 -1.43202 -1.4245 -1.42641 -1.43234 -1.4332 -1.43409 -1.4331 -1.43173 -1.43157 -1.43401 -1.43001 -1.43377 -1.43255 -1.43491 -1.43555 -1.43594 -1.43603 -1.43419
internal_weight=3468.72 3093.64 552.134 2541.5 462.679 375.083 312.25 241.186 195.142 202.515 2078.82 2043.27 89.5929 239.884 162.94 189.437 1853.83 1765.28 127.686 88.5571 80.5768 222.657 221.493 114.121 1735.18 1689.45 102.509 146.305 121.938 172.568 80.8042 1586.94 1557.44 943.056 67.9058 875.15 177.641 697.509 140.866 99.6815 129.317 597.827 62.0582 86.3487 614.386 589.129 553.693 571.854 107.372 103.791 534.117 174.46 146.211 98.3726 529.4 497.069 359.657 472.046 59.8906
internal_count=21830 20440 2513 17927 2601 1390 1100 1125 776 958 15326 15184 453 1413 1044 1163 14021 13440 878 581 512 647 1476 703 13269 12977 585 474 446 432 553 12392 12195 7301 437 6864 1253 5611 1072 747 918 4864 509 648 4894 4722 4451 4664 773 828 4383 1383 1164 714 4263 4013 3000 3820 465
is_linear=0
shrinkage=1


Tree=4
num_leaves=63
num_cat=0
split_feature=48 33 40 34 5 10 1 19 55 1 38 33 19 0 5 42 38 1 59 5 0 33 27 0 51 17 17 54 54 52 25 25 56 38 54 74 1 1 4 28 47 47 1 1 28 45 1 5 40 20 56 1 20 52 0 4 81 52 32 40 0 18
split_gain=808.569 356.605 392.651 160.116 140.083 153.331 116.081 95.7215 73.9035 72.6873 66.1507 65.7372 63.6957 59.6811 54.9313 54.1743 49.3933 46.29 44.4146 32.2468 35.5383 30.3831 29.1913 41.6604 26.3447 25.8084 22.8686 22.6459 36.9724 20.4831 22.4725 23.6758 20.754 20.4376 18.9913 17.723 17.5738 25.0663 17.9064 15.4894 15.332 42.8265 21.7285 44.7929 14.8952 13.9512 33.8139 13.8872 13.6167 12.4395 11.9131 10.9577 17.6281 10.5344 9.29348 9.14187 8.71434 8.39244 7.87019 7.85993 7.01991 6.86784
threshold=1.0000000180025095e-35 -0.00020301195509452765 0.00019818322005633396 1.0000000180025095e-35 -0.033060054406108451 0.032894545098317664 -0.011272040369458832 0.027915182605605045 1.0000000180025095e-35 0.017825709816124899 -0.00020626319681120111 -7.86440589146326e-05 -0.025041999190354117 1.5622352040670908 0.032327414061552158 7.5000000000000009 0.00022007058601097946 0.010142888510509183 -0.15471935334866296 0.051270529955677165 -1.8215452356255339 0.00033291582285019475 1.0000000180025095e-35 -0.039508111351040924 1.0000000180025095e-35 -0.0078982330503842135 0.0004473839788494694 4.5511090141536398e-05 -8.2233659360879817e-05 9.2705475038954314e-05 -2.3479633228624692e-06 -6.213076567999936e-05 8.5000000000000018 0.00012999515255541417 0.00013608669470261791 -0.00021512945394950301 -0.0079662437390685108 0.006700526633929913 9.7968635198011751e-05 19.500000000000004 0.00010492259748093447 -0.00012742536151581901 -0.010771151763334423 0.0062698291439050426 22.500000000000004 9.1071613031709352e-06 0.0029535109808164037 -0.012433942838309479 9.1356073271541528e-05 1.5000000000000002 8.5000000000000018 -0.0073714366841524147 2.5000000000000004 6.9657431448786041e-05 -0.44252171460826184 0.00065430762782970296 7.7901837668087125e-06 5.5653663544136272e-06 2.8840363612710467e-07 -6.0920083394169906e-05 -1.5487949804680361 -0.00019443916966776953
decision_type=2 2 2 2 2 2 2 2 2 2 2 2 2 2 2 2 2 2 2 2 2 2 2 2 2 2 2 2 2 2 2 2 2 2 2 2 2 2 2 2 2 2 2 2 2 2 2 2 2 2 2 2 2 2 2 2 2 2 2 2 2 2
left_child=1 12 4 6 11 10 60 21 15 14 -6 35 -1 16 18 27 19 -15 -8 20 -12 25 23 -20 40 -4 -14 28 -5 30 31 34 -33 -7 45 -3 -24 39 53 50 41 54 -43 44 -44 46 -22 59 57 -30 -38 -26 -53 -39 -10 56 -34 58 -49 -32 -2 -17
right_child=3 2 7 8 5 33 9 -9 24 -11 13 -13 26 17 -16 61 -18 -19 22 -21 29 -23 36 -25 51 -27 -28 -29 49 -31 47 32 55 -35 -36 -37 37 38 -40 -41 -42 42 43 -45 -46 -47 -48 48 -50 -51 -52 52 -54 -55 -56 -57 -58 -59 -60 -61 -62 -63
leaf_value=-0.040322434251273201 -0.045256917611645749 -0.030702136883150419 0.082261445214973195 -0.013418193066787135 0.0011209058952750162 0.016118410092556365 -0.011932297139435798 -0.039946069176128092 -0.046970855399311229 -0.041026569686640327 0.025781292812886072 0.057803066259618133 -0.013448995029657761 0.065127998579947416 -0.02636093566488952 -0.047360751596525696 0.0096523987724743687 -0.017109567830809063 0.094214665722885338 0.035291727039396557 0.05891461127563468 -0.0090789736580876839 -0.011541134706288175 0.023392433256562453 -0.035771562724364242 0.016146820408115475 0.040301317587203983 -0.013229359986263676 0.081185772766488501 0.043534835392983195 0.05880941940389206 0.095526219161167408 0.018985616369641779 -0.041412765857854396 0.050620353944313391 0.012001359015520055 0.0082236885567750096 0.009072517868892389 -0.022212247958225059 0.071755985845053272 -0.046291972134462046 -0.043931451205454636 0.027054024970267015 -0.03186142161970619 -0.012388778107041285 0.12330269953652882 0.11819543897009926 0.076816178826326575 0.079947190406058272 0.033025835932667606 0.052062551777700028 0.029053159486197674 -0.021448914721442992 0.050672409010552616 -0.022530933113693776 0.072804321509616882 0.05826794300261981 0.12361574440657415 0.11845195791254365 0.095375912861618478 -0.019162135282779283 -0.020435937291117784
leaf_weight=186.41124727576971 111.21833194047213 58.725829422473907 26.289794065058231 27.475342370569706 33.842536330223083 30.69533097743988 63.827926069498062 154.00593864917755 351.77972424030304 57.341126024723053 25.628553412854671 48.497232265770435 39.798083193600178 38.362199954688549 57.905379436910152 38.678899608552456 25.711741164326668 30.764455683529377 41.926850855350494 37.2870689406991 49.838326886296272 45.025754690170288 29.398263923823833 41.216594249010086 31.460634268820286 33.637982085347176 39.185682341456413 37.282878860831261 27.628428645431995 27.066418468952179 27.597079180181026 31.694469459354877 31.623224958777428 30.872786767780781 25.042239740490913 41.320798985660076 29.25436931848526 38.265273384749889 28.11234587430954 39.001876749098301 356.80887272208929 67.726533070206642 65.549181781709194 124.46345638483763 37.596409648656845 40.185262374579906 47.1340496763587 24.877979762852192 37.658219367265701 26.406331896781921 32.95946828275919 29.579945139586926 41.25708195567131 25.228352658450603 44.046158894896507 25.39519140124321 25.623616211116314 89.610035851597786 22.590609595179558 33.397590920329094 33.820474348962307 61.617701202630997
leaf_count=738 679 257 217 167 250 241 350 693 1548 403 177 372 225 329 264 192 195 184 358 258 390 244 182 309 191 253 257 222 235 214 213 274 222 214 189 284 176 288 200 331 1875 378 496 816 249 357 423 205 322 197 262 224 255 215 265 212 204 808 199 286 209 388
internal_value=-0.000154175 0.0280569 0.0396559 -0.0208368 0.0546582 0.0630093 3.55843e-05 -0.0148614 -0.0304309 0.0117851 0.0693916 0.0100919 -0.0243843 0.0727054 0.0188834 -0.00381347 0.07756 0.0285568 0.0259849 0.0804571 0.0834312 0.02195 0.0339118 0.0591763 -0.0354999 0.0452395 0.013235 0.0190254 0.0337769 0.0861653 0.0884089 0.0786572 0.0611213 -0.0127505 0.0909732 -0.0130706 0.0244367 0.0299252 0.0109574 0.0470643 -0.037864 -0.0335071 -0.0190885 -0.0116803 0.0126791 0.0982986 0.0878205 0.0998103 0.107041 0.0577549 0.0314948 -0.0112673 -0.00034916 0.0256554 -0.0442576 0.047827 0.0366393 0.11442 0.0968383 0.0789547 -0.0391895 -0.0308562
internal_weight=3464.23 1465.4 1200 1998.83 941.043 792.499 629.477 258.959 1369.36 484.438 730.931 148.544 265.395 697.088 427.097 219.09 627.962 69.1267 369.191 602.25 564.963 104.954 305.363 83.1434 1150.27 59.9278 78.9838 118.793 81.5101 539.334 512.268 276.536 114.337 61.5681 162.2 100.047 222.22 192.822 91.606 101.216 1047.97 691.161 295.336 227.609 103.146 137.158 96.9724 235.732 174.737 54.0348 62.2138 102.298 70.837 63.4936 395.826 82.642 57.2468 137.079 47.4686 60.9947 145.039 100.297
internal_count=21830 9906 8686 11924 7279 6366 4226 1407 7698 3338 5911 913 1220 5661 2935 1401 5148 513 2671 4953 4695 714 2321 667 6297 470 482 821 599 4518 4304 2271 912 455 1359 541 1654 1472 703 769 5627 3752 1939 1561 745 1170 813 2033 1534 432 438 670 479 503 1813 638 426 1212 404 499 888 580
is_linear=0
shrinkage=0.05


Tree=5
num_leaves=57
num_cat=0
split_feature=1 3 48 17 32 1 12 35 12 11 49 33 52 32 12 5 40 28 2 0 32 35 39 17 2 11 17 4 39 66 54 1 47 17 3 54 1 1 81 3 42 3 31 0 1 2 33 59 1 74 17 80 74 5 11 0
split_gain=1869.78 526.544 429.568 227.032 192.581 147.987 107.596 101.247 99.4256 81.8976 66.5955 84.1097 63.8469 63.708 55.6317 55.2291 50.7209 42.0991 41.3155 33.9736 32.3522 47.9387 34.3835 31.8556 31.8441 28.016 26.8783 46.0358 25.9693 23.9912 23.437 23.0066 46.0041 21.6683 20.7877 19.3519 19.1601 15.6086 14.6034 13.1177 9.99482 6.3664 6.27924 15.6341 6.20495 5.13688 4.21129 3.75599 3.46511 5.36997 3.21615 2.75142 1.50941 0.3781 0.170358 0.0189639
threshold=0.0043769837857546758 0.029086616234895536 3.5000000000000004 0.016273198214087618 1.7703005437938843e-05 0.0078451743298617437 -0.015332736029676065 14.500000000000002 -0.013807848435450186 6.150175383054335e-05 7.5000000000000009 0.00019072069218865984 2.1164200900808887e-05 5.9731023998728585e-06 -0.013807848435450186 0.023824468424074711 0.00028492055844106919 50.500000000000007 -0.17735003852218259 -1.6012855734742675 3.6051499706581444e-06 12.500000000000002 -2.2153763609765352e-06 -0.0032552506873674458 -0.48164021798075729 -0.00049898927547239807 -0.0096542084432719149 0.0017404473835597905 2.1451675255810185e-06 0.017422046205109246 9.1451707955157255e-05 0.001264737136886885 2.626309729137942e-05 0.016479667201709649 0.0094479403373726647 5.9456554504248089e-05 -0.0011256326338386728 0.011690427490159531 4.3904705119491982e-05 0.039093457365849155 5.5000000000000009 0.0097432470736265302 5.2600478525246105e-05 -0.14847196585166886 0.017825709816124899 -1.5112717848974355 1.2905835316383352e-05 -0.054365310562011528 -0.0036374897517061169 0.00021777717613553281 0.0069316780512488369 -0.0023575245376068203 0.00016213851162732353 0.01759970771313191 0.0017783151280012508 0.86726731814547764
decision_type=2 2 2 2 2 2 2 2 2 2 2 2 2 2 2 2 2 2 2 2 2 2 2 2 2 2 2 2 2 2 2 2 2 2 2 2 2 2 2 2 2 2 2 2 2 2 2 2 2 2 2 2 2 2 2 2
left_child=1 3 6 15 5 8 51 29 40 18 11 14 26 28 -7 31 24 20 45 -17 22 -22 25 -14 -10 33 -8 -28 -9 -3 38 42 50 -12 -20 41 -37 -16 -26 -30 -4 -21 54 48 -27 -5 -24 -39 53 -50 52 -2 -33 -44 55 -1
right_child=2 7 4 9 -6 10 12 13 16 -11 17 -13 23 -15 37 19 -18 -19 34 35 21 -23 46 -25 30 44 27 -29 39 -31 -32 32 -34 -35 -36 36 -38 47 -40 -41 -42 -43 43 -45 -46 -47 -48 -49 49 -51 -52 -53 -54 -55 -56 -57
leaf_value=-0.049134487781458847 -0.048264992378110154 0.030985449813540213 -0.02599366732202792 -0.043352469567544898 -0.013508375740942068 0.033951563134296765 -0.035151755653563765 0.050133028314750652 0.040039253959207988 0.086076141577003121 0.042443457005463134 -0.0022536243563015855 0.021717752844293038 0.027127779256249603 0.07455713609515556 -0.046848577243306773 0.0041921328004168208 0.04912247802769934 0.05811756273500545 -0.039389631622371794 0.038059142136387093 0.11628154381405593 0.10937743608881706 0.097079814100598724 0.093097392065493778 0.10068714166051103 0.054182371183643489 -0.022881725196196752 0.079664916841530334 -0.015960372853137717 0.11860174668425023 -0.049012154278720105 0.013119609063456049 0.099278021216746545 -0.00087111993628345848 -0.0054204974409247314 0.046210526758308813 0.12818252378225956 0.043154528337987157 0.12692926755481088 0.010949710137633139 -0.0078374915129489006 -0.048787099755417028 -0.0083625791975767555 0.1323227927102642 -0.013023130767197442 0.13202907923265039 0.10256332492689511 -0.045742280240428805 -0.015499928458232205 -0.028596413733642596 -0.030509589686161617 -0.035926701536808651 -0.042937298818266516 -0.044756447029021248 -0.046331964834640235
leaf_weight=996.13495679199696 76.514372728765011 39.977078497409821 37.527240388095379 30.766699120402336 69.269531451165676 46.892841517925262 38.174171581864357 32.74980141222477 48.627881795167923 37.338445819914341 35.054250061511993 39.818194478750229 25.213531464338303 88.642817936837673 40.042722046375275 66.145280197262764 32.259157210588455 39.625137127935886 31.228351838886738 32.292280837893486 41.692089982330799 37.090419910848141 29.253607518970966 31.698097638785839 30.656510196626186 35.76550181210041 39.069015994668007 38.272526778280735 27.773839339613914 84.693922594189644 40.997976697981358 96.056366637349129 49.000759914517403 32.525463327765465 28.536368317902088 49.464843817055225 28.10383415222168 30.395085588097572 28.532046660780907 33.224996790289879 35.575738161802292 31.689990572631359 173.61867880821228 33.294794224202633 31.629605270922184 25.7084836140275 122.88267878443003 34.946791291236877 38.265214964747429 24.009895458817482 35.025758355855942 31.571264542639256 30.593011930584908 42.570449531078339 37.522880479693413 37.947969533503056
leaf_count=5893 457 278 187 219 192 268 324 252 341 261 211 119 213 394 285 399 105 250 256 207 178 243 200 232 224 257 286 136 211 388 285 576 363 225 169 349 194 210 182 232 248 236 1280 216 217 218 841 239 310 206 313 217 263 275 193 307
internal_value=-0.000254001 -0.0270252 0.0501501 -0.0365841 0.066647 0.0731662 -0.00402165 0.0338362 0.0411855 0.0217603 0.0867591 0.0624463 0.0204927 0.0575629 0.0793547 -0.0415583 0.061046 0.0982579 0.00104458 -0.0172954 0.103564 0.0749866 0.111377 0.0637889 0.0733594 0.0928434 -0.000875 0.0160668 0.0862809 -0.000893928 0.0894761 -0.0447183 -0.0293004 0.0699037 0.0299973 -0.00346221 0.0133213 0.0995063 0.0691357 0.105575 -0.00802469 -0.0237987 -0.0470641 -0.0407725 0.115708 -0.0295935 0.127748 0.114658 -0.0446432 -0.034126 -0.0421573 -0.0431117 -0.0458821 -0.0476556 -0.0488905 -0.0490361
internal_weight=3463.95 2262.38 1201.57 1955.32 921.06 851.791 280.513 307.062 254.177 153.578 597.614 192.096 172.427 182.391 152.277 1801.74 181.074 405.519 116.24 207.696 365.894 78.7825 287.111 56.9116 148.814 134.975 115.516 77.3415 93.7486 124.671 100.187 1594.04 210.676 67.5797 59.7647 141.551 77.5687 105.385 59.1886 60.9988 73.103 63.9823 1383.36 311.759 67.3951 56.4752 152.136 65.3419 278.464 62.2751 161.675 108.086 126.649 216.189 1071.61 1034.08
internal_count=21830 14458 7372 12703 5507 5315 1865 1755 1572 1123 3743 1121 1191 1089 1002 11580 1137 2622 862 1385 2372 421 1951 445 1032 910 746 422 695 666 691 10195 1515 436 425 986 543 734 406 443 435 443 8680 2287 474 437 1041 449 2071 516 1152 674 839 1555 6393 6200
is_linear=0
shrinkage=0.05


Tree=6
num_leaves=53
num_cat=0
split_feature=1 10 45 5 5 12 54 4 1 54 32 0 0 39 45 0 45 46 38 40 12 17 1 76 18 17 0 1 12 5 83 21 5 74 17 10 2 84 2 45 1 5 38 45 1 74 1 74 2 45 68 12
split_gain=1754.94 675.564 366.259 215.776 147.223 138.988 113.989 94.68 105.259 111.643 82.7236 73.7587 71.3013 76.2607 63.6834 62.7605 59.586 47.5657 46.9111 38.9005 40.6006 109.528 38.7257 30.8379 30.151 29.6143 28.7498 27.3192 19.3522 18.5621 18.0616 15.149 14.786 13.0742 11.6867 8.74475 8.71031 7.53601 5.19743 9.32378 15.117 4.148 2.78215 2.71978 1.7277 1.43403 1.35003 1.07046 0.6937 0.506205 0.19043 0.0828106
threshold=-0.0038300905630696195 -0.023017177060560799 2.6956039349742283e-05 -0.067343192200001442 0.040152281046402831 -0.016496225578793374 -9.5116025753924196e-05 -0.00065610201103951163 -0.0091614082636358261 -7.8033433468073437e-05 -1.402894469063059e-05 -2.3013250869689856 1.4789794454682883 -2.4885673428351564e-06 -0.00021663732477918742 -1.0158319842508361 9.1071613031709352e-06 -2.6155672382889219e-07 -0.00031721187631830007 -0.00035231886235994198 0.017582657374763697 -0.0060844624101407067 0.0021113766650455489 5.5000000000000009 -0.00015308981963920579 -0.021927523142848491 -1.48257220885861 0.001264737136886885 -0.014705799423122929 -0.016493167777735959 3.5000000000000004 11.500000000000002 0.0013393983428384162 -0.00013812037522347435 -0.021527015723720202 -0.016950082885032889 1.3330015737795891 4.5000000000000009 -0.61309396425616003 1.6616671697382118e-05 0.00018445383922873818 -0.035423092010550349 -0.00018528314153393345 -1.7487488383267151e-05 0.0062698291439050426 -0.00014188621861450248 -0.012889513844090946 -0.00056248642519738355 -1.6386622072652 -0.00010034752477308753 0.11266126394993577 -0.012978294392467961
decision_type=2 2 2 2 2 2 2 2 2 2 2 2 2 2 2 2 2 2 2 2 2 2 2 2 2 2 2 2 2 2 2 2 2 2 2 2 2 2 2 2 2 2 2 2 2 2 2 2 2 2 2 2
left_child=2 6 3 -1 7 12 10 11 14 25 -2 -5 13 16 23 30 -3 31 -12 -16 29 -22 33 -9 -15 -10 -11 -8 -17 -21 -4 -13 -28 -20 -7 -36 46 43 39 40 -37 -14 -40 -26 -42 -30 -31 -41 -43 -44 -49 -51
right_child=1 5 15 4 -6 34 27 8 9 26 18 17 41 24 19 28 -18 -19 22 20 21 -23 -24 -25 37 -27 32 -29 45 36 -32 -33 -34 -35 35 38 -38 -39 42 47 44 48 49 -45 -46 -47 -48 50 -50 51 -52 -53
leaf_value=-0.013265878379924673 -0.00044163785652361889 0.074075597767593482 0.04008100094609534 -0.016278719766014384 -0.03177375533319509 -0.01512858379969117 0.019175514483060992 0.081502323779373775 0.12026399662322979 0.046043935713244798 0.13048287220067181 0.097639891728323089 -0.026224521355771437 0.020392095970764187 0.052910473679495099 -0.0029865326057183059 0.00027164506733557721 0.025231190883136068 0.10299233924770557 0.082396140847522711 0.12196605808844535 0.012925658453137163 0.031717157151178024 0.027202816254146969 -0.029506386240026057 0.061735077058273628 0.019567571830810239 -0.036916257488585132 -0.035048942027059722 0.12828301447572893 -0.0071095840036119427 0.057757446021063578 -0.028485743696451151 0.064479026953907503 -0.024455202860558273 0.0003769209902665209 0.098371634932238591 -0.011799626971894203 -0.033274961662393805 -0.0377045274584474 -0.031647470594002601 -0.039609626366258005 -0.04315862680897975 -0.04753545296512094 -0.04909167518883957 -0.049134608913852143 0.11666163391560408 -0.049214460260216697 -0.049336129877643964 -0.045274022615544099 -0.043876751599779405 -0.049110285003736265
leaf_weight=93.425443947315216 45.777802795171738 51.142833396792412 51.604096248745918 44.319814011454582 36.685824036598206 31.336064472794533 45.069458074867725 56.859545946121216 41.300782531499863 40.589089393615723 31.26917639374733 51.424309156835079 33.212393559515476 36.164296172559261 39.400542333722115 37.613826870918274 58.64971486479044 71.664504513144493 44.815375991165638 37.451440207660198 56.06777074187994 39.079047664999962 59.533759199082851 48.608431912958622 38.709289871156216 46.150444336235523 28.280452743172646 41.698843523859978 26.229523435235023 141.10826699435711 33.314046077430248 45.539870791137218 36.633922800421715 45.020258881151676 45.755951516330242 31.718899570405483 38.30063908547163 34.481472112238407 30.7553501278162 29.955282494425774 24.633315756917 28.424061991274357 45.926961712539196 47.593636184930801 36.606188885867596 69.505001179873943 49.333403170108795 145.20491313934326 74.491100005805492 31.226845622062683 29.952711470425129 1004.5917557179928
leaf_count=247 137 357 290 109 158 289 324 277 255 291 193 304 164 247 161 220 323 296 285 188 335 197 380 189 229 287 223 227 241 847 282 255 265 291 379 262 233 210 246 240 219 240 338 276 317 554 302 1099 540 245 248 6519
internal_value=-0.000163412 -0.0270779 0.0468896 0.0592227 0.0663611 -0.0383455 0.0409297 0.0703112 0.0792037 0.0477415 0.0595963 0.0410915 -0.01229 0.00273945 0.0911845 -0.0120013 0.0346866 0.0561705 0.0748031 0.10029 0.10544 0.0772412 0.0630675 0.0565261 -0.0196169 0.0894825 0.0130908 -0.00779236 -0.0333872 0.115486 0.0215812 0.0789876 -0.00755305 0.0837849 -0.0454002 -0.0460505 0.120865 -0.031603 -0.0467492 -0.0408344 -0.0276463 -0.0417204 -0.0483301 -0.0394924 -0.0421379 -0.045316 0.125335 -0.046795 -0.0466908 -0.0487551 -0.0483272 -0.048999
internal_weight=3464.21 2203.72 1260.49 1042.22 948.798 1890.53 313.185 912.112 699.164 192.955 226.416 212.948 402.869 266.741 506.209 218.266 109.793 168.629 180.639 400.741 361.341 95.1468 149.369 105.468 156.949 87.4512 105.503 86.7683 133.348 266.194 84.9181 96.9642 64.9144 89.8356 1487.66 1456.33 228.742 120.784 1410.57 298.071 92.9584 136.128 1112.5 86.3029 61.2395 95.7345 190.442 205.113 102.915 1081.75 175.158 1035.82
internal_count=21830 14824 7006 5419 5172 12987 1837 5014 4050 1321 1286 964 2586 1642 2729 1587 680 855 1149 2263 2102 532 956 466 962 542 779 551 1015 1570 572 559 488 576 10401 10112 1382 715 9733 2385 798 944 7348 505 536 795 1149 1587 780 7102 1347 6764
is_linear=0
shrinkage=0.05


Tree=7
num_leaves=59
num_cat=0
split_feature=33 33 4 5 59 5 24 0 11 66 39 32 39 33 75 24 4 38 35 40 33 59 33 5 2 1 54 5 28 33 75 54 47 39 0 38 60 5 2 56 67 1 46 14 2 31 2 33 6 42 54 1 11 67 67 39 3 67
split_gain=788.122 859.338 340.078 281.737 255.581 211.084 135.885 124.771 89.8648 89.1244 83.2245 111.176 79.6125 83.4644 74.604 60.3914 56.7029 49.9075 42.6905 47.4436 40.7141 44.4262 39.3223 64.3906 31.3729 27.4243 28.9048 55.8999 26.0608 23.5891 22.8655 19.014 14.227 11.9593 11.8411 21.3344 11.2338 10.3882 8.31707 10.6813 7.394 6.71846 5.57678 9.27525 4.55301 3.14962 2.78492 2.6732 1.86012 2.90108 1.69137 1.08098 3.78318 0.423522 0.171852 0.681572 0.124018 0.150755
threshold=-0.00029864346463810432 0.00022333678366200595 0.00076406818423152025 -0.031428262062615391 -0.04611063091007616 -0.05312397293182234 -0.0020962339419094453 -0.30706487074155842 0.0027652193484706592 0.056185204188456406 5.7085619183456276e-06 2.5632941616739087e-05 -2.7735920952118635e-06 -0.00010817287260052797 0.29424136536040318 0.0091346334040757864 -0.0010896037011140158 -0.00033945430860903236 12.500000000000002 0.00019442744142931484 0.0003994134046165976 0.024225751261850507 -0.00016317118294060896 -0.016493167777735959 -1.014870389616749 -0.020709594563977144 7.9053286343286447e-05 -0.013275138864211276 17.500000000000004 0.000113473899595446 0.1483005565383558 -0.00024046448860210403 9.2684573524325832e-05 -1.8659531104286681e-06 -1.8986498648230554 -8.6275019397113266e-05 0.0088585338332614286 0.051270529955677165 1.2651784410073044 15.500000000000002 0.002466024388414981 -0.017693149304018212 1.4332857360539412e-06 14.500000000000002 2.2014689521356754 -0.00027259071706256294 2.0310669928844649 -8.7758234396945042e-06 6.5000000000000009 18.500000000000004 -0.00011664805945286659 -0.0061984283034212965 -0.00021580042879547841 0.0015032421078797274 0.0036264406201783829 -2.2911608615439816e-07 0.04208276491949161 0.005069462131497276
decision_type=2 2 2 2 2 2 2 2 2 2 2 2 2 2 2 2 2 2 2 2 2 2 2 2 2 2 2 2 2 2 2 2 2 2 2 2 2 2 2 2 2 2 2 2 2 2 2 2 2 2 2 2 2 2 2 2 2 2
left_child=5 3 10 4 12 31 17 9 14 -4 15 38 -2 -14 18 -3 -8 -7 19 22 21 -9 23 -5 -6 -24 29 -28 -19 32 40 -1 34 53 35 -27 42 41 -12 -40 -31 -20 47 -44 51 -18 48 -29 56 -50 -26 52 -36 -25 -53 -56 57 -43
right_child=1 2 7 8 24 6 16 20 -10 -11 11 -13 13 -15 -16 -17 45 28 37 -21 -22 -23 25 33 50 26 27 36 -30 30 -32 -33 -34 -35 44 -37 -38 -39 39 -41 -42 46 43 -45 -46 -47 -48 -49 49 -51 -52 54 -54 -55 55 -57 -58 -59
leaf_value=0.084697653751006435 -0.0023895358253707946 0.0029837204511862486 -0.020732805517664221 0.032069578129963847 -0.0009385982207734153 0.020753423478688846 0.035095331511714421 0.040583407427951197 0.052651651889444984 0.070619270335223319 -0.049376807762879837 0.061854077752028419 0.096923034518734463 0.020073472400506099 0.037901080612333105 0.07756638707833452 -0.049375755111981778 0.054680661510675334 -0.020338418477253317 0.023368726114596269 0.11352796970036089 0.097207919636593754 0.0048205966948188031 -0.049318852807661087 -0.049489030545439038 -0.049220261649398751 0.033628913404864638 -0.030035321183430004 0.10051185244986799 -0.049321194207436261 0.014861278387120466 0.11668783580128057 -0.0063294496241285683 -0.0079665672610118761 -0.026720705723452233 0.0067791460303928243 -0.0022499855699159434 -0.019743725958586214 -0.045378608829872102 -0.0029378746081372194 -0.015474097356441611 -0.04935533182756436 -0.0049705073514811661 -0.044988730071911717 -0.026501494528133197 -0.026868376176857684 -0.030877010075801001 -0.04936475764795703 -0.026982072030884444 -0.049231461059634413 -0.035909093142553965 -0.049346144846475232 -0.049285316108948984 -0.040287447174866077 -0.049305574775312916 -0.03829056065151553 -0.04421392508846015 -0.04415947516454561
leaf_weight=92.61748243868351 48.289886564016342 63.608780816197395 50.24434632062912 63.474864631891251 64.182643346488476 57.647645674645901 39.850933521986008 59.336735479533672 31.59475488960743 56.789241164922714 85.131581984460354 33.309439972043037 104.54450100660324 53.435133844614029 37.087397880852222 47.253963083028793 39.407571569085121 64.287568815052509 24.836146809160709 42.876617327332497 118.87572611123323 83.908771865069866 44.411181904375553 36.061488002538681 72.596313290297985 39.123352162539959 40.59829656034708 25.066715128719807 60.807680398225784 37.501189708709717 35.728196755051613 97.079213425517082 25.281211085617542 31.977679774165154 26.844634518027306 29.991082578897476 28.131391733884811 40.769482232630253 30.654945053160191 28.650729663670063 28.488280318677425 432.12617916613817 29.864537939429283 28.057620123028755 26.584400430321693 26.411361977458 26.207002624869347 68.467020288109779 27.028730519115925 33.264720886945724 35.790809251368046 395.46632166951895 63.562999963760376 27.079200245440006 53.198996432125568 22.343467757105827 24.195531323552132 24.0645637139678
leaf_count=267 285 380 345 321 366 266 191 267 123 205 648 118 289 324 196 168 297 251 152 233 263 230 231 285 524 273 215 197 159 309 221 194 184 203 198 167 186 289 230 179 208 3628 195 224 208 197 194 541 205 289 291 3511 469 192 473 192 190 194
internal_value=0.000571263 -0.00896659 0.0414985 -0.023213 0.0162418 0.0601678 0.0332055 0.0732806 -0.0308732 0.0277569 0.000835196 -0.0203661 0.0537941 0.0709585 -0.0322505 0.034815 -0.0119216 0.0592922 -0.0336344 -0.0282745 0.091852 0.073797 -0.0301103 -0.00690107 -0.028649 -0.0336192 -0.0353194 -0.0192989 0.0770213 -0.039815 -0.0173296 0.101122 -0.0431636 -0.0329135 -0.0445796 -0.0249455 -0.0312761 -0.0442226 -0.039357 -0.0249148 -0.0347546 -0.0459056 -0.0366624 -0.0243995 -0.0468828 -0.0403986 -0.047022 -0.0442221 -0.0477987 -0.0393186 -0.045042 -0.047843 -0.0426222 -0.0455154 -0.0488358 -0.0461026 -0.0488546 -0.049091
internal_weight=3466.07 2987.96 657.764 2330.19 378.839 478.109 288.413 369.155 1951.36 107.034 288.609 177.747 206.27 157.98 1919.76 110.863 105.67 182.743 1882.67 1250.18 262.121 143.246 1207.3 158.593 172.57 1048.71 1004.3 220.186 125.095 784.114 101.718 189.697 682.396 95.1184 657.115 69.1144 179.587 632.492 144.437 59.3057 65.9895 591.723 151.456 57.9222 588.001 65.8189 566.887 93.5337 540.68 60.2935 108.387 561.416 90.4076 63.1407 471.009 75.5425 480.386 456.191
internal_count=21830 20008 3033 16975 2079 1822 1361 1310 14896 550 1723 1175 898 613 14773 548 685 676 14577 9436 760 497 9203 1001 1181 8202 7971 1558 410 6413 738 461 5675 680 5491 440 1343 5141 1057 409 517 4852 1157 419 5051 494 4700 738 4506 494 815 4843 667 477 4176 665 4012 3822
is_linear=0
shrinkage=0.05


Tree=8
num_leaves=63
num_cat=0
split_feature=48 33 40 41 5 10 1 19 19 1 33 1 31 40 1 38 0 40 5 38 1 1 33 5 0 5 24 17 1 55 10 52 1 19 38 73 74 10 54 5 4 17 54 66 5 4 60 0 33 5 4 53 25 1 19 52 47 0 24 73 18 21
split_gain=726.638 312.647 341.043 161.314 111.702 131.307 101.693 88.6577 67.7431 62.4029 56.4974 54.1935 126.724 91.3119 85.7864 52.6767 50.3394 47.6486 48.1831 41.0372 41.0082 37.1353 27.0741 26.859 27.5222 23.779 24.2951 21.9539 21.2756 26.4293 20.9105 19.7705 19.7509 42.5241 19.0813 18.7193 18.0398 17.5967 20.2568 16.9099 16.5493 16.4787 15.3683 21.961 18.0192 12.0008 13.6394 9.04966 8.66599 12.3693 8.52878 7.21884 9.08964 7.57508 6.55303 6.53362 6.28495 7.66028 5.41923 5.32248 5.07745 4.9911
threshold=1.0000000180025095e-35 -0.00019547793189889331 0.00019818322005633396 1.0000000180025095e-35 -0.033060054406108451 0.032894545098317664 -0.0096911544216863495 0.027915182605605045 -0.027188320054483798 0.016905330570493673 -7.86440589146326e-05 -0.0086586697681895527 9.9197815177333532e-05 -0.00016766857651483524 0.0062698291439050426 -0.00020626319681120111 1.5622352040670908 0.00017960746271810055 -0.04150293637570391 0.00022007058601097946 0.010142888510509183 0.0072690235768775365 0.00033291582285019475 0.04139765731591289 -1.8035807226069496 -0.027325514400812764 -0.00044860028378247122 -0.0078982330503842135 -0.0053632978112429517 5.5000000000000009 -0.012293377188635287 9.2705475038954314e-05 0.011690427490159531 -0.0041481038520385918 0.00012999515255541417 0.022417146005699124 -0.00023194726873849777 -0.032144509874463371 0.00013354784347286368 -0.022545521325206815 -8.6316499690913977e-05 0.011786491170075344 7.7231912838835004e-05 0.067171193527399378 -0.023435126334358226 0.0006899094602314306 0.004281553085621761 -1.624462973850382 7.6654496770620206e-05 -0.020160268519349735 -0.00030328383154981951 3.9478906241915276e-07 -7.0513618892045814e-05 -0.00030248019607538341 0.044968688219310007 -3.0498701821122615e-05 -9.5795894970629355e-06 -1.7870544102227048 -0.0027627960040811921 0.019649551658038833 6.2079191981856939e-05 19.500000000000004
decision_type=2 2 2 2 2 2 2 2 2 2 2 2 2 2 2 2 2 2 2 2 2 2 2 2 2 2 2 2 2 2 2 2 2 2 2 2 2 2 2 2 2 2 2 2 2 2 2 2 2 2 2 2 2 2 2 2 2 2 2 2 2 2
left_child=1 8 4 6 10 15 47 22 -1 17 36 56 13 60 28 -6 19 18 -8 23 -18 42 27 24 -17 -10 -27 -4 30 39 -15 37 33 -16 -7 -25 -3 -26 45 -30 -41 -23 43 44 -20 46 48 -2 49 -39 -46 52 -48 -54 -9 -51 -5 -58 -14 -47 -13 -34
right_child=3 2 7 11 5 34 9 54 25 -11 -12 12 58 14 32 16 20 -19 21 -21 -22 41 -24 35 31 26 -28 -29 29 -31 -32 -33 61 -35 -36 -37 -38 38 -40 40 -42 -43 -44 -45 50 59 51 -49 -50 55 -52 -53 53 -55 -56 -57 57 -59 -60 -61 -62 -63
leaf_value=-0.040481173975641653 -0.043357333453439062 -0.031237400256567689 0.075414247629978004 -0.046273583544631319 0.0013346997789001828 0.015020804782550294 -0.022759468437184089 -0.023538454297016138 -0.02059512373961395 -0.039905551401748035 0.053370728028227787 -0.042848899704072893 -0.026751401401881526 -0.019925833644993375 0.03939477670461089 0.026495496112854081 0.059508086239239769 -0.012976065821364909 0.039817723900654592 0.0089968610524805911 -0.017752719920216785 0.03228024512627483 -0.0088473973611287015 0.068190955434282274 0.043583785443820341 -0.0011908459464700992 0.063217701068786547 0.015267434825770457 0.019413827454232212 0.0059890695294220302 0.035231520770075693 0.037224754415092827 -0.044283843029140672 -0.027918709591042208 -0.040725156483553349 0.011138717926755743 0.012482270497515352 0.049917705968611725 0.053869250871143429 0.094577145648436486 0.045659420091790803 -0.011735321893373124 0.026422815000076184 0.020162140033374368 0.067579803851391715 0.10527396856122243 0.10708491991204012 -0.013906761671123908 0.048979449415336079 0.063372273962565479 0.10313474267886409 0.11248108730191503 0.092038138725404284 0.056093782194952493 -0.046148286184710334 0.092599778293787932 -0.04283413539400744 -0.012144271004026914 -0.045590774673515279 0.078241651578035809 -0.023102576195386693 -0.0189225321756646
leaf_weight=177.43461984395981 93.548577219247818 53.848882600665092 27.426223002374172 357.46631762385368 32.463834375143051 31.059082746505737 35.287169642746449 47.151470743119717 34.708172500133514 44.798687942326069 50.078071810305119 127.70714408159256 43.188411131501198 38.866512343287468 36.509560942649841 26.249322049319744 39.52544990926981 74.556509926915169 29.624228373169899 25.849263727664948 30.248943097889423 48.405237324535847 44.853969477117062 29.733236812055111 29.596777997910976 28.760431617498398 29.715227484703064 33.946686632931232 28.687631018459797 44.871866978704929 30.638890326023102 27.098823852837086 59.730008512735367 65.235325261950493 30.175381928682327 27.841638140380383 41.860026590526104 31.598774313926697 52.049884714186192 28.482925355434418 44.799359165132046 37.790663972496986 39.887009210884571 24.976300269365311 32.825338147580624 102.27439458668232 33.810756489634514 36.329035140573978 32.942378774285316 26.131306812167168 37.064600832760334 38.305017411708832 30.081441223621368 30.051008976995945 102.42882822453976 83.74282431602478 53.484298817813396 32.934059351682663 365.68750033527613 24.112667597830296 44.242261365056038 29.051372438669205
leaf_count=729 565 235 217 1789 239 241 161 293 151 327 372 591 322 237 275 179 326 373 217 194 181 379 244 232 222 182 235 253 203 327 234 207 401 417 214 172 281 227 384 249 340 295 280 168 269 859 283 238 257 205 324 326 248 236 400 693 328 193 1989 189 201 232
internal_value=-0.000131123 0.0262413 0.0370536 -0.0200737 0.0507131 0.0579234 0.00334842 -0.0142466 -0.0223598 0.015689 0.0103955 -0.028828 -0.0223023 -0.00724736 0.00566413 0.0636435 0.0664475 0.0226084 0.0318907 0.070771 0.0260361 0.0395928 0.0206716 0.0733215 0.0766233 0.0121522 0.0315913 0.0422247 0.0272035 0.037985 0.00440393 0.0790466 -0.0187958 -0.00374935 -0.0124715 0.0406692 -0.0121227 0.0812408 0.0835289 0.0520452 0.0647754 0.0129914 0.0535256 0.0621813 0.0726965 0.0870805 0.0816498 -0.0351365 0.0723541 0.0777585 0.086556 0.0938456 0.0861355 0.074198 -0.0390416 0.0857126 -0.04334 -0.0311658 -0.0436079 0.100183 -0.0377846 -0.0360156
internal_weight=3453.83 1487.15 1216.54 1966.68 960.729 814.942 535.093 255.807 270.618 405.216 145.787 1431.58 987.699 578.823 406.873 753.708 721.244 360.417 285.861 651.47 69.7744 250.573 106.227 625.62 568.045 93.1838 58.4757 61.3729 216.347 146.842 69.5054 541.796 190.526 101.745 61.2345 57.5749 95.7089 514.697 485.1 101.97 73.2823 86.1959 164.377 124.49 99.5142 433.051 306.664 129.878 174.415 141.473 69.8899 132.248 93.9432 60.1325 149.58 109.874 443.885 86.4184 408.876 126.387 171.949 88.7814
internal_count=21830 9906 8609 11924 7202 6314 3596 1407 1297 2793 888 8328 6018 3707 2915 5859 5620 2466 2093 5113 507 1932 714 4919 4515 568 417 470 1590 1119 471 4336 1325 692 455 404 516 4129 3907 792 589 674 1258 978 810 3523 2475 803 1382 1125 593 1093 767 484 693 898 2310 521 2311 1048 792 633
is_linear=0
shrinkage=0.05


Tree=9
num_leaves=59
num_cat=0
split_feature=1 10 45 32 1 32 12 33 12 5 12 10 24 24 49 40 12 4 47 31 18 2 1 18 33 33 3 39 33 32 74 18 2 42 47 11 59 1 82 10 0 39 32 54 54 46 0 11 10 31 1 5 0 2 5 73 59 0
split_gain=1666.38 535.771 398.533 160.631 131.618 110.916 105.744 81.3112 82.2934 78.9482 78.4368 78.2063 75.8983 68.6489 50.0837 65.4122 55.326 42.8538 39.8359 35.2558 32.5424 31.0974 27.2143 62.8906 28.392 26.5355 27.9103 24.571 31.9295 22.6192 22.5707 18.8136 16.196 16.0866 15.9891 15.5212 15.4216 13.9655 13.2131 11.6043 9.63716 9.48427 15.0856 8.9195 8.21256 5.44333 8.96279 5.26664 4.85251 4.60307 6.04098 3.4358 2.83293 2.64905 1.81374 1.69368 1.58117 0.944569
threshold=0.0043769837857546758 0.023804435002159972 -2.3152930633738154e-05 1.7703005437938843e-05 0.0078451743298617437 1.3984476353081472e-05 0.026001732023146738 -5.0323847352687588e-05 0.1007802548831661 -0.013275138864211276 -0.015640156266259166 0.031631708088746213 0.0058919442910270589 0.013077054754014746 7.5000000000000009 0.00019442744142931484 -0.014705799423122929 0.002212964410133481 -2.7953520076440326e-05 2.8838066196386941e-05 -0.00021629102693061404 -0.69355089462383279 -0.0020645175517839099 0.00031270748998002109 7.6654496770620206e-05 0.00043403719429134865 0.031552399170185312 3.0719199335645008e-06 0.00021489635757233707 -1.6000288305012219e-06 0.00031173534222741887 6.2079191981856939e-05 -1.0394976898906925 10.500000000000002 1.6473838693492327e-05 -0.00031661198934933071 0.010040994417429375 -0.00065107761255842414 0.025303085488725622 -0.0057093033117885583 -0.47189367518277336 -2.1400883656691362e-06 -2.6988367959517784e-06 0.00013608669470261791 0.00023037520186807995 6.8631718555713251e-07 0.39349243858130611 -0.00069376464721030557 0.0048689794753946402 0.0001304641131996244 -0.0071971607033302154 0.0095965226592558423 -1.2070829146147246 -0.59595107548122039 0.018764259671977427 -0.0038214791352000374 -0.010976869262822082 1.944359827527995
decision_type=2 2 2 2 2 2 2 2 2 2 2 2 2 2 2 2 2 2 2 2 2 2 2 2 2 2 2 2 2 2 2 2 2 2 2 2 2 2 2 2 2 2 2 2 2 2 2 2 2 2 2 2 2 2 2 2 2 2
left_child=1 6 10 4 9 7 13 -3 11 39 53 30 29 22 15 16 -6 21 -15 52 -16 -11 49 24 45 26 37 28 32 -12 40 -26 -22 -31 -23 -18 44 43 -36 -4 -9 42 47 -21 -13 51 55 -34 -37 -1 54 -24 -8 -2 -51 -47 -29 -43
right_child=2 5 3 -5 14 -7 19 8 -10 17 12 36 -14 18 20 -17 35 -19 -20 25 27 34 23 -25 31 -27 -28 56 -30 33 -32 -33 41 -35 38 48 -38 -39 -40 -41 -42 57 -44 -45 -46 46 -48 -49 -50 50 -52 -53 -54 -55 -56 -57 -58 -59
leaf_value=-0.048346529046525255 -0.047790427596437368 -0.026374140095209327 -0.027752595554833455 -0.012425632896041119 0.025074631375997039 -0.033801094982193518 -0.046103249152246742 -0.0079374038228036421 -0.016252939808299584 0.028477300098001115 0.028790406529724439 0.091096308259978068 0.07392221284280201 -0.02528432128178288 0.044804692077182399 -0.0029175843621653008 0.064558097090367056 0.0070271089213718232 0.060228795749827806 -0.026414117540009205 0.068345153290439706 0.048953471081991516 -0.048284120522184351 0.038952052136657478 -0.027437376983316799 -0.029891903833390233 0.060449839675516419 0.1186165284567534 0.0424637380504026 -0.034899832003097035 0.063875065600844425 0.025924434373651651 0.083969247646827658 0.0095627402112222117 0.10956070339039033 0.0899278795177509 0.061715223446449509 0.032878015362286191 0.068463206858731557 0.011673147230442181 0.032679085844591588 0.1057781353828091 0.063446624455766015 0.012403783111458757 0.12315743233011728 -0.048572231892487758 -0.0086028847953170083 0.11156086141604629 0.11574212580577772 -0.04796265198047088 -0.021405139363200511 -0.029595123011441474 -0.024782180366790144 -0.029888696348707108 -0.032977955121324731 -0.032398194825007609 0.10361165057067663 0.1198087739570851
leaf_weight=970.29672928154469 71.954379074275494 35.5608811378479 34.187075182795525 69.035792298614979 46.353386744856834 54.093143694102764 31.430930033326149 29.078081957995892 35.305451616644859 40.576611615717411 33.834377825260162 56.909116640686989 39.158437840640545 29.444494150578976 38.805024981498718 35.719450145959854 42.105215303599834 38.484397947788239 25.175466857850552 31.997371062636375 57.774477623403072 31.151468098163605 251.91268616169691 28.627220779657364 46.734195455908775 34.426357716321945 31.219674699008465 70.490524247288704 37.965195745229721 57.4517722427845 33.579217568039894 25.423495225608349 28.639046840369701 31.409508466720581 44.950861744582653 40.96940852701664 30.947739481925964 30.87821027636528 36.033730559051037 40.872293390333652 29.177129372954369 35.955571874976158 37.7997842207551 27.374455086886883 33.160022065043449 42.108985140919685 27.831717029213905 53.107665181159973 38.054550252854824 91.175736509263515 37.418934538960457 27.911074325442314 31.793138235807419 29.997715085744858 27.304647363722324 27.986716799438 34.681679204106331 37.84250296652317
leaf_count=5930 380 225 217 194 265 166 182 235 107 276 243 394 278 257 202 106 270 146 184 235 391 215 1785 217 366 106 201 451 161 340 222 217 204 235 305 280 174 200 214 242 216 235 209 211 219 313 200 347 251 664 297 254 254 260 202 225 211 244
internal_value=-0.000260331 -0.0261975 0.0462703 0.0610673 0.0666897 0.0317667 -0.0366225 0.0442753 0.0544059 0.0371522 -0.00822742 0.0661281 0.0134101 -0.0409332 0.0790425 0.0585059 0.0715997 0.0542037 0.0141685 -0.00397492 0.088663 0.06608 -0.0428094 -0.0328057 -0.0373792 0.00879943 0.0197807 0.0929673 0.0853617 -0.00594683 0.0312877 -0.00862642 0.0918277 -0.0191907 0.0796491 0.0893684 0.0925194 0.00566093 0.0913815 -0.00629702 0.0124265 0.0988058 0.089879 -0.00852566 0.103023 -0.0428678 -0.0326484 0.102009 0.102489 -0.0470569 -0.0390045 -0.0464312 -0.0354377 -0.0425576 -0.04454 -0.0421699 0.113772 0.113125
internal_weight=3451.64 2216.28 1235.36 971.556 902.52 337.811 1878.47 283.718 248.157 266.256 263.806 212.851 161.854 1659.35 636.263 203.202 167.483 191.197 54.62 219.12 433.061 152.713 1604.73 478.536 449.909 155.896 121.47 394.256 289.084 122.696 91.8344 72.1577 251.119 88.8613 112.136 121.129 121.017 90.25 80.9846 75.0594 58.2552 193.345 119.546 59.3718 90.0691 377.751 97.9274 81.7467 79.024 1126.2 155.899 279.824 63.2241 101.952 118.48 70.0957 105.172 73.7981
internal_count=21830 14458 7372 5636 5442 1958 12500 1792 1567 1615 1736 1460 1096 11111 3827 1172 1066 1156 441 1389 2655 1010 10670 3577 3360 953 847 2453 1791 818 673 583 1630 575 734 801 787 646 519 459 451 1239 760 446 613 2777 738 551 531 7093 1163 2039 436 640 866 538 662 479
is_linear=0
shrinkage=0.05


Tree=10
num_leaves=55
num_cat=0
split_feature=45 48 54 0 12 12 0 2 0 4 52 0 42 38 19 5 45 67 33 38 0 73 45 45 47 25 73 19 10 25 0 42 2 33 52 82 32 38 0 25 54 14 54 0 24 11 5 0 54 67 48 25 47 74
split_gain=1349.5 466.647 343.573 339.285 171.205 119.74 94.6519 86.8612 114.8 86.4108 71.9718 66.1251 61.7549 46.0513 45.1271 44.6662 39.4956 34.4993 33.6531 32.4712 92.25 56.6598 30.7696 26.8507 26.2691 24.1315 22.8357 20.2067 26.1436 19.6557 17.3673 15.5706 14.0684 13.8842 13.5419 13.0809 9.4714 8.28031 16.6455 6.11974 5.90516 5.77804 3.33705 2.87065 4.0126 6.66753 1.92431 7.4479 1.55919 1.17294 0.620049 0.343329 0.0170326 0.00694971
threshold=-1.4065681891145569e-05 1.0000000180025095e-35 -0.00011001638577247959 -1.053800994844569 -0.063641095028146591 -0.024524152421287245 1.2149006187575488 1.5674587252559753 -1.5487949804680361 -0.00041020025511534795 -8.351111698860818e-05 -2.3013250869689856 43.500000000000007 6.0362083141562492e-05 -0.0091684574066337714 0.031656338045838735 -9.6886078897620567e-05 -0.00018758553938028584 0.00021031564781505275 -5.5310544293972277e-05 -1.48257220885861 -0.027011123053652986 1.215109337603858e-05 -0.00011545835892340574 -6.2096599989444856e-05 -3.4521510207075291e-06 -0.023291375290947661 -0.055786191654465765 -0.023473790853167892 -3.2495136496722453e-05 -1.6473425075538126 8.5000000000000018 -0.62668966113178215 4.8077216140799161e-05 -2.2721664804971583e-05 -0.0034863354287424761 3.408469445168674e-06 -0.00015788686891430337 1.5147039303730749 -4.9003185190204343e-05 -0.00019586241923841982 2.5000000000000004 -0.00013453571249950834 -0.56574714367415957 0.00052617841248430873 0.00020085123519493153 -0.011911247553391012 0.27807184539114255 -3.5034332313897696e-05 0.0015032421078797274 4.5000000000000009 -0.00011031873408235366 -0.00014632447165753213 0.00029157031119722983
decision_type=2 2 2 2 2 2 2 2 2 2 2 2 2 2 2 2 2 2 2 2 2 2 2 2 2 2 2 2 2 2 2 2 2 2 2 2 2 2 2 2 2 2 2 2 2 2 2 2 2 2 2 2 2 2
left_child=1 2 6 10 -3 13 12 9 -9 11 -2 -6 27 22 31 18 17 -13 24 21 29 -11 -5 -10 -12 -18 -24 -1 40 -21 -26 39 -16 35 -33 -23 -22 38 -7 -4 -29 -37 49 44 53 -46 47 -45 -34 -43 -49 -50 -48 -39
right_child=3 4 14 5 7 37 -8 8 23 19 15 16 -14 -15 32 -17 25 -19 -20 20 36 33 26 -25 30 -27 -28 28 -30 -31 -32 34 48 -35 -36 41 -38 43 -40 -41 -42 42 -44 46 45 -47 52 50 51 -51 -52 -53 -54 -55
leaf_value=0.041891401129165798 0.076851535022303866 -0.012600946445146814 -0.0055043595459634076 0.038559706592889785 -0.0092006525842585167 0.0043652133015406802 -0.017468195367898919 0.075665347544607964 0.021643727175139665 0.038933379068995286 0.030934384319607006 0.11102586619911188 0.015244525675630569 -0.045493632866015564 -0.015642591666736913 -0.04543114053297756 0.019739485332438633 0.045730449411542272 0.065720353045527188 0.063716039543421532 -0.017492979377812037 0.08071298725282787 0.022067775593028 -0.03206567299197946 0.020215876375135486 0.068876455858446206 -0.024291248390990398 0.11330411710356468 0.051176128459844698 0.10547272731171707 -0.027774278148640072 -0.008167000710164898 -0.034753116066755296 0.067982053495111869 0.039109149322805487 0.092214865148761635 0.025519675323385605 -0.048747747050237419 -0.048706640943735627 -0.032106803563534216 0.085065200903786428 0.10871714039027294 0.09858795155218647 -0.018197989728132094 -0.011270532330407429 -0.044764129698805728 -0.045381451277285954 -0.040233991851959527 -0.041814998788659796 0.12228267890868327 -0.048566462211766637 -0.048564555052442039 -0.048416178859169039 -0.044891263616007593
leaf_weight=34.138747595250607 48.086296655237675 89.000366136431694 40.151854872703552 53.072717115283012 48.967997506260872 24.466421738266945 49.340827159583569 69.844378679990768 40.956050090491772 50.670675784349442 72.366404309868813 45.712492361664772 57.593821883201599 55.19122152775526 46.432191520929337 31.728950507938862 73.982087433338165 36.634754352271557 31.459134258329868 54.508413068950176 24.546677999198437 63.694672845304012 41.62751767039299 53.628978058695793 29.437487676739693 37.728194110095501 73.015993639826775 47.59007253497839 37.854476608335972 59.96217355132103 52.051323570311069 33.682514071464539 28.448687866330147 38.450617603957653 27.384729355573654 50.436000972986221 26.529394760727882 46.7567483112216 37.137031309306622 46.8618149086833 33.781112119555473 36.176595993340015 35.830369211733341 26.940759338438511 26.912464454770088 33.318468488752842 30.92508777230978 32.293563760817051 27.750100061297417 66.159844100475311 119.31968106329441 164.22579504549503 882.27688986063004 24.895128987729549
leaf_count=135 319 238 276 345 129 196 346 386 210 193 327 271 328 233 395 249 328 163 227 256 210 326 268 274 227 247 389 284 291 362 392 222 258 207 217 270 203 433 312 273 222 206 219 218 220 243 273 269 195 381 867 1197 5949 156
internal_value=-0.000167275 0.0319634 -0.000173576 -0.0305836 0.0535874 -0.0397533 0.0448471 0.0600302 0.0270962 0.0672461 0.0215723 0.0427048 0.0594233 -0.00592052 -0.02842 0.00929532 0.0558005 0.0820679 0.0186849 0.0789998 0.0607485 0.0878291 0.00712136 -0.00881079 0.00903097 0.0363814 -0.00745354 0.0759932 0.0857146 0.0856621 -0.0104345 -0.00627849 -0.0406995 0.0963341 0.0130626 0.100626 0.00485441 -0.0456202 -0.0276557 -0.0198517 0.1017 0.107305 0.112743 -0.0465223 -0.0394492 -0.029842 -0.047373 -0.0425135 -0.0459682 0.117598 -0.0468193 -0.0476112 -0.0483184 -0.0474723
internal_weight=3451.94 1678.66 675.237 1773.28 1003.42 1508.15 260.299 914.42 164.429 749.991 265.13 243.026 210.958 222.907 414.938 217.043 194.058 82.3472 185.314 506.965 165.547 341.419 167.716 94.585 153.855 111.71 114.644 153.364 119.226 114.471 81.4888 148.081 266.857 290.748 61.0672 252.297 51.0761 1285.24 61.6035 87.0137 81.3712 188.603 138.167 1223.64 131.883 60.2309 1091.76 178.554 220.425 102.336 151.613 191.976 913.202 71.6519
internal_count=21830 9718 4639 12112 5079 10371 1606 4841 870 3971 1741 1138 1260 1235 3033 1422 1009 434 1173 2833 1031 1802 1002 484 946 575 657 932 797 618 619 988 2045 1609 439 1402 413 9136 508 549 506 1076 806 8628 1052 463 7576 1354 1650 587 1136 1392 6222 589
is_linear=0
shrinkage=0.05


Tree=11
num_leaves=61
num_cat=0
split_feature=33 33 4 12 82 12 6 24 11 39 39 39 40 75 38 40 24 75 12 4 34 33 1 60 46 12 1 11 49 33 4 4 1 4 80 33 66 2 26 17 61 33 0 33 1 60 19 82 4 39 28 21 45 41 25 24 13 1 81 10
split_gain=696.939 776.097 289.977 228.467 207.723 173.267 116.039 103.917 85.0798 77.7498 76.2836 75.4809 72.536 62.4625 58.106 112.707 51.6179 46.5081 38.1107 35.4284 33.6158 32.3943 26.0417 24.9385 24.6969 22.1063 19.7242 28.3504 25.9971 26.282 39.2645 27.3967 36.4411 15.6281 19.7511 15.2713 14.9819 12.5876 11.8342 19.9141 11.5811 10.6133 9.23283 7.241 6.85058 5.11736 2.84657 2.20156 2.04116 3.51147 1.60133 0.954085 2.83655 0.888163 0.595001 0.581743 0.153757 0.13161 0.120864 0.095461
threshold=-0.00029864346463810432 0.00022333678366200595 0.00076406818423152025 -0.034357902844949217 -0.073073789372880088 -0.050389752333324982 1.0000000180025095e-35 -0.0055698599430191844 0.0027652193484706592 -5.9597141377317056e-07 -2.9968748062587558e-06 5.7085619183456276e-06 0.00053035633512142101 0.29424136536040318 0.00020609327799042272 0.00050600806452416613 0.0091346334040757864 -0.26918192435841842 -0.020329407956258063 -0.0010896037011140158 1.0000000180025095e-35 0.00019833751676976224 0.0019900734822080441 -0.0064180061983353841 -1.6606221863742766e-06 0.056409795088646512 -0.018256145742247119 0.00042949982812001149 16.500000000000004 -0.00013613634248906445 -0.00041020025511534795 0.0017404473835597905 0.006397052316631238 -0.0018700415021459908 -0.005546243520079961 -0.00046613250358420311 -0.085640111020266099 1.5465833048495576 0.00129345936414048 0.0013481720939117392 -0.53856874013860778 2.3725300744918387e-05 -2.0201237963624004 0.00015199048915738375 -0.0019609413123423138 0.016586558816040122 -0.018907937017030602 -0.033816732749158536 0.0020690407264736307 1.7175856145526147e-06 17.500000000000004 3.5000000000000004 3.7971199903549849e-05 6.5000000000000009 -7.6600048193172901e-05 0.004314065968067716 7.5000000000000009 0.012271005479320031 0.00011740057914692521 0.023804435002159972
decision_type=2 2 2 2 2 2 2 2 2 2 2 2 2 2 2 2 2 2 2 2 2 2 2 2 2 2 2 2 2 2 2 2 2 2 2 2 2 2 2 2 2 2 2 2 2 2 2 2 2 2 2 2 2 2 2 2 2 2 2 2
left_child=5 3 11 4 23 35 10 -4 13 24 19 16 37 17 22 -16 -3 -5 -8 -7 25 26 -9 -2 -6 33 27 -22 29 30 -28 36 -33 34 -19 -1 -31 59 39 54 -30 -41 -35 48 50 46 -42 -21 51 -50 -45 52 -44 58 -38 -26 -53 -40 -48 -13
right_child=1 2 7 8 9 6 18 14 -10 -11 -12 12 -14 -15 15 -17 -18 20 -20 47 21 -23 -24 -25 55 -27 28 -29 40 31 -32 32 -34 42 -36 -37 38 -39 57 41 45 -43 43 44 -46 -47 53 -49 49 -51 -52 56 -54 -55 -56 -57 -58 -59 -60 -61
leaf_value=0.10240772126547748 0.081851801111517505 0.0028469652730074846 0.0053684677711783504 0.019407517004471918 0.0042994335786043494 0.018374219931795256 0.091538719789702433 0.069387392926334043 0.050176330278340266 0.032044967966946551 0.060707341809212223 -0.048999512123964396 0.038738577919389804 0.033671126114688761 -0.0037627978811620188 0.099506338401069205 0.070951069714169285 0.0013966721372935626 0.039207646619176841 -0.031079231065433446 -0.036127872504714026 0.020085412630442064 0.10549491012510881 0.037761208012507631 -0.049427214158692147 -0.0032932242718472049 0.035165296507276719 0.023235980935588971 -0.0091402504626085634 -0.0012415372955720204 -0.033587163916446547 -0.030516737399046173 0.038235803198393689 -0.016039802199867489 -0.048798349446010074 0.074886880441412493 -0.038392464107389584 -0.014609294632395823 -0.048897181407471908 -0.025090520933315437 -0.033218654709461573 0.016087273056602749 -0.048716987868395061 -0.032100377075372319 -0.011272078641610133 -0.022146567008584771 -0.048737511094216507 -0.049536466635640264 -0.048505473211398975 -0.021885681951484423 -0.048662669506096885 -0.048654297634468172 -0.030801361126555016 -0.039786033971133103 -0.048666425967387843 -0.040414586729925574 -0.043330455260944575 -0.043684692023631455 -0.043874522258164787 -0.044007300126816473
leaf_weight=115.78994030505419 79.472228959202766 63.705659739673138 57.931698873639107 43.573311880230904 29.27018079906702 35.082558609545231 62.431665167212486 78.511198371648788 33.286143884062767 58.240169048309326 36.656837783753872 67.202544867992401 40.608119890093803 37.286818891763687 53.236007109284401 52.340495973825455 49.306574858725071 45.09404145181179 79.0487916842103 26.174206160008907 37.644614636898041 36.133930452167988 141.86051006615162 54.218922913074493 84.608651146292686 39.5753423422575 44.032263413071632 42.954476557672024 27.297820053994656 30.219639502465725 39.123518988490105 46.025463931262493 33.006676353514194 29.133694380521774 34.554840691387653 92.530540220439434 23.643779709935188 41.876004353165627 123.5818373337388 35.682281479239464 45.777765400707722 27.719502732157707 68.976173378527164 28.680137738585472 28.800802201032639 27.228225708007812 196.07695327699184 45.689984604716301 28.403741799294949 22.416979879140854 32.128797776997089 473.49688162654638 33.635473109781742 40.730403684079647 49.355523534119129 27.212651111185551 22.786681145429611 24.624880388379097 25.437722116708755 25.760910771787167
leaf_count=233 252 380 325 258 162 180 164 270 125 297 129 516 182 196 303 118 168 310 335 200 246 193 294 246 632 275 211 201 190 213 273 370 174 193 310 252 190 280 1059 279 332 174 618 221 211 205 1566 329 264 184 269 4231 280 330 432 200 208 192 203 197
internal_value=0.000557977 -0.00860316 0.0386276 -0.0224641 0.015818 0.0555722 0.0302272 0.0670862 -0.0289753 -0.0165217 -0.00144042 0.000744996 -0.0197788 -0.0303466 0.0780504 0.0474795 0.0325968 -0.031613 0.0623483 -0.0227789 -0.0328196 -0.0263097 0.0926683 0.0640123 -0.0365778 -0.0398288 -0.0281336 -0.00450091 -0.0304015 -0.0227226 0.00281683 -0.0281141 -0.00179116 -0.0415331 -0.0204138 0.0902255 -0.0347194 -0.0374175 -0.0382724 -0.027609 -0.0404958 -0.00709045 -0.0437191 -0.0448075 -0.031412 -0.0430454 -0.044885 -0.0428665 -0.04665 -0.0368295 -0.0409167 -0.047477 -0.0428801 -0.0469081 -0.0453959 -0.047272 -0.0484186 -0.0480612 -0.0481991 -0.0476649
internal_weight=3456.89 2963.49 672.34 2291.15 333.023 493.405 285.084 383.88 1958.13 199.332 143.604 288.46 175.448 1924.84 325.948 105.577 113.012 1887.55 141.48 106.947 1843.98 956.297 220.372 133.691 141.091 887.684 920.163 80.5991 839.564 477.015 83.1558 393.86 79.0321 848.108 79.6489 208.32 314.827 134.839 284.608 136.401 362.549 63.4018 768.459 739.326 89.6097 335.251 308.023 71.8642 649.716 50.8207 60.8089 598.895 102.612 262.245 72.9993 111.821 496.284 148.207 221.515 92.9635
internal_count=21830 20008 3033 16975 1789 1822 1337 1310 15186 1291 838 1723 1175 15061 985 421 548 14865 499 709 14607 7033 564 498 994 7574 6840 447 6393 3567 484 3083 544 7299 620 485 2539 993 2326 1075 2826 453 6679 6486 701 2636 2431 529 5785 448 490 5337 898 2099 622 832 4439 1251 1769 713
is_linear=0
shrinkage=0.05


Tree=12
num_leaves=63
num_cat=0
split_feature=48 33 40 34 5 10 1 19 1 36 33 19 38 5 0 59 1 1 47 33 1 38 0 38 2 0 20 54 17 38 1 54 47 35 0 1 10 0 31 5 74 28 1 31 17 40 73 25 14 0 18 19 19 46 33 5 73 47 19 17 84 60
split_gain=654.044 277.116 287.382 142.666 107.62 110.244 100.454 82.5243 61.8712 58.9473 53.3824 50.576 48.6006 47.8145 40.9121 37.4727 36.3774 35.8374 91.55 62.5363 80.6376 35.2023 27.0413 26.489 25.5806 23.8418 22.6546 22.0616 18.6009 17.9408 17.8178 24.6302 16.7931 20.2346 16.5102 15.8504 15.6927 17.7885 42.3848 21.8837 15.0714 14.0935 12.6045 11.4395 11.8703 10.951 8.88672 8.56472 7.6026 7.15932 6.51439 6.39608 5.43703 4.94511 4.58629 4.45559 4.34741 4.17388 3.96421 3.33548 3.17269 3.64486
threshold=1.0000000180025095e-35 -0.0002103449322912856 0.00019818322005633396 1.0000000180025095e-35 -0.033060054406108451 0.032894545098317664 -0.011272040369458832 0.027915182605605045 0.017825709816124899 1.0000000180025095e-35 -7.86440589146326e-05 -0.025041999190354117 -0.00020626319681120111 0.032327414061552158 1.5622352040670908 -0.15471935334866296 0.010700118694628424 -0.0086586697681895527 0.00010039952359589125 -0.00016002397201257156 0.0061429347942474179 0.00021035375276987661 -0.88215750210036858 6.8665772262671462e-05 2.1009920634366019 -1.7178072014891326 1.0000000180025095e-35 -7.8033433468073437e-05 0.0004473839788494694 0.00012999515255541417 0.0086456687003462675 0.00013354784347286368 -0.00018030084699950224 8.5000000000000018 0.017353736924033084 -0.0053632978112429517 -0.029592009133795987 0.27807184539114255 4.7322968145358612e-05 -0.018783867190700573 -0.00014188621861450248 15.500000000000002 0.0010815297091195258 3.1739219140319561e-05 0.015334937055555551 0.00014671191068976657 -0.011877702360913135 1.5876823659623648e-05 24.500000000000004 -1.5251267448759571 0.00035049940025612885 0.044968688219310007 -0.040894800095216281 -2.6155672382889219e-07 7.8551386973646121e-05 -0.012433942838309479 0.0041247373895982233 -1.3551232096387971e-05 -0.045465066226069481 -0.0092642133225933499 6.5000000000000009 -0.011465243683005928
decision_type=2 2 2 2 2 2 2 2 2 2 2 2 2 2 2 2 2 2 2 2 2 2 2 2 2 2 2 2 2 2 2 2 2 2 2 2 2 2 2 2 2 2 2 2 2 2 2 2 2 2 2 2 2 2 2 2 2 2 2 2 2 2
left_child=1 11 4 6 10 12 49 22 13 17 40 52 -6 15 21 -8 -16 57 19 58 27 24 -4 -11 25 -14 34 35 -13 -7 31 32 -28 -34 -17 -21 -27 39 48 -38 -3 -40 -29 44 -22 50 -32 -36 53 -2 55 -9 -1 56 -20 -41 -39 -5 -19 -60 61 -57
right_child=3 2 7 9 5 29 8 51 -10 23 -12 28 14 -15 16 26 -18 18 54 20 43 -23 -24 -25 -26 36 30 42 -30 -31 46 -33 33 -35 47 -37 37 38 41 45 -42 -43 -44 -45 -46 -47 -48 -49 -50 -51 -52 -53 -54 -55 -56 60 -58 -59 59 -61 -62 -63
leaf_value=-0.045370123273478044 -0.043721132147382484 -0.027027337258368419 0.046833277644585967 -0.045545717384164686 0.00068396925817436154 0.014431681896699678 -0.011416971995286615 -0.022776425703982115 -0.039343757221307653 0.046011309050136118 0.049527686306860629 -0.015615254453217632 0.030629075630184324 -0.025488157290601707 0.053783059835737147 0.071347109385854063 -0.018702444054742955 -0.047422110262792638 -0.028860995733528808 -0.015218232166865199 0.0084597743496908264 0.011370244441310767 -0.0035264567356990423 -0.011849346119005278 0.031635995023701458 0.040158571309996616 0.0076601258591229545 0.063439957267782635 0.033920249745098836 -0.039926655109462972 0.019856338647726027 -0.0076347987250433604 0.028950631754687192 0.076910114040672842 0.011294352950798879 0.030631856361249318 0.049851812298427445 0.082499142028566966 0.051191567585804357 0.073382951467449428 0.012322276745716551 0.0028136632968187875 0.023073993004438367 -0.034549766263488345 -0.032750577387898779 0.057129311720622258 -0.017885900642368221 0.051174000198469065 0.056411121235468591 -0.016532413614481305 0.065543192121878577 -0.045366585487408177 -0.026159055392683768 0.068552529974171758 -0.046104526587320421 0.11166701105421246 0.11034929934093787 -0.027848175413660005 -0.039601107400934026 -0.019089605279317558 0.078543821105876516 0.093348096902270056
leaf_weight=114.52172869443893 105.54496882110834 66.315299421548843 49.287569992244244 356.63607531785965 35.277833364903927 31.250292174518108 63.180952779948711 46.381731383502483 54.251009874045849 34.155369304120541 51.475945353507996 36.598991014063358 36.838592313230038 56.783888831734657 43.210592776536942 48.239576853811741 28.763705208897591 63.217325694859028 44.454061701893806 36.838939860463142 43.813306197524071 29.849356293678284 57.887697495520115 46.738379798829556 47.809564664959908 36.066312089562416 27.773197002708912 44.849911488592625 39.105386897921562 29.345514759421349 28.249143362045288 32.460971064865589 45.510936535894871 42.81750912964344 27.349786154925823 38.404160358011723 48.704691380262375 37.971572205424309 30.345095112919807 30.211018800735474 38.330858834087849 29.804270423948765 34.244007050991058 91.117323659360409 28.932759672403336 29.937646798789501 34.571154676377773 26.556168764829636 30.50209503620863 31.631321512162685 26.998379491269588 98.787685804069042 55.072336107492447 30.624074406921864 327.03958071768284 37.683763884007931 25.044706709682941 37.396979846060276 45.444034822285175 35.694500029087067 29.38519948720932 144.73993203043938
leaf_count=427 689 311 390 1832 260 241 350 293 403 255 372 203 251 264 346 379 171 230 304 255 331 219 324 313 315 267 182 348 243 214 229 194 332 353 193 294 347 300 235 224 266 204 254 647 179 217 246 213 235 199 203 400 277 239 1802 313 209 226 232 196 230 1160
internal_value=-0.000106055 0.0246213 0.0340947 -0.0193385 0.046056 0.0530608 0.000316387 -0.0136125 0.0109487 -0.0287213 0.00789238 -0.023989 0.0580471 0.0172503 0.0607288 0.0236977 0.0248293 -0.0314445 -0.025568 -0.0107186 0.00166667 0.0645103 0.019655 0.0126075 0.0669386 0.0697233 0.0307752 0.027593 0.00998349 -0.0119155 0.0214152 0.0308495 0.0416067 0.0522598 0.0501051 0.0081933 0.0722529 0.0744209 0.0617747 0.0811048 -0.012616 0.0272646 0.0460146 -0.0227543 -0.00795298 0.0861781 -0.000909319 0.030999 0.0784602 -0.0374683 0.0893883 -0.0381697 -0.0391508 0.0855745 -0.0440494 0.0920202 0.093725 -0.0438736 -0.0380015 -0.0306123 0.0946426 0.0971914
internal_weight=3438.03 1504.13 1258.83 1933.9 1006.49 850.364 624.921 252.345 487.744 1308.98 156.122 245.298 789.768 433.493 754.491 376.709 71.9743 1228.08 834.05 462.556 318.2 682.516 107.175 80.8937 652.667 604.857 313.528 154.337 75.7044 60.5958 211.383 148.563 116.102 88.3284 102.146 75.2431 568.019 531.952 184.292 347.661 104.646 60.1494 79.0939 163.863 72.7461 298.956 62.8203 53.906 124.142 137.176 269.018 145.169 169.594 93.6404 371.494 242.02 63.0163 394.033 144.356 81.1385 211.809 182.424
internal_count=21830 9906 8756 11924 7349 6400 4226 1407 3338 7698 949 1150 5945 2935 5685 2671 517 7130 5072 2966 2308 5168 714 568 4949 4634 2321 1151 446 455 1536 1061 867 685 785 549 4383 4116 1422 2694 577 439 602 1157 510 2347 475 406 983 888 2130 693 704 748 2106 1927 509 2058 658 428 1703 1473
is_linear=0
shrinkage=0.05


Tree=13
num_leaves=59
num_cat=0
split_feature=1 26 45 32 5 47 0 32 38 12 4 24 59 0 12 2 5 1 19 60 0 45 31 11 38 2 67 32 0 1 21 1 26 2 83 28 19 45 0 42 35 53 38 1 45 2 82 1 31 21 5 26 5 5 67 21 38 26
split_gain=1491.76 511.549 338.48 136.326 109.641 87.4802 114.761 82.9047 75.4822 73.537 66.8792 66.303 52.7853 45.9684 55.7773 48.7789 39.5498 36.8363 49.1491 34.4428 41.5498 34.2402 28.1411 27.9102 24.627 22.6879 21.5503 21.3536 24.7609 19.7454 18.9838 18.6593 16.9882 16.8145 18.0938 15.8519 15.6911 15.1125 30.7175 10.7447 8.35697 8.27337 7.67162 5.33829 9.75698 13.9801 4.0381 3.6098 4.23916 3.0162 1.54225 1.52116 1.35161 1.10496 0.232446 0.127271 0.325862 0.0950919
threshold=0.0043769837857546758 0.024824728209182936 -2.3152930633738154e-05 1.7703005437938843e-05 -0.026807838203261432 1.6473838693492327e-05 0.25850312672049491 1.3984476353081472e-05 0.00020253401281874082 -0.015640156266259166 0.0013802066786051737 0.0058919442910270589 0.024225751261850507 -0.74776678632137317 0.1007802548831661 -0.15596936581677351 0.026902086626507064 0.011690427490159531 0.00029624802878457562 0.003645199216751376 2.1004781361583515 8.546556766617372e-05 6.9700829976138991e-05 0.00081632375960206103 1.9009053269519123e-05 0.056636478343077147 -0.00125425202747993 9.9940612731296581e-06 0.73265253090176563 0.001264737136886885 30.500000000000004 0.0079723009457690324 0.012744551021553965 -0.69355089462383279 5.5000000000000009 38.500000000000007 0.03314762397908657 8.371912499383805e-05 0.15931949375644547 9.5000000000000018 44.500000000000007 -1.6266830069266806e-07 9.0004369158478757e-05 0.0019900734822080441 -5.9792090694326823e-06 -0.80033205001408003 -0.024122154005359067 -0.0031939838801031567 0.00015277401555854788 35.500000000000007 -0.0054174353053105797 -0.0060768021321541037 0.020971245012874482 0.030216512290408313 -0.0025456440098711405 6.5000000000000009 8.7948744467344927e-05 0.013663576951400561
decision_type=2 2 2 2 2 2 2 2 2 2 2 2 2 2 2 2 2 2 2 2 2 2 2 2 2 2 2 2 2 2 2 2 2 2 2 2 2 2 2 2 2 2 2 2 2 2 2 2 2 2 2 2 2 2 2 2 2 2
left_child=1 5 9 4 -4 37 16 8 13 49 17 27 -12 -3 15 -15 29 18 22 35 25 32 24 -17 31 -21 -18 28 -11 40 33 -6 -8 -20 -35 42 -10 43 50 -30 47 -28 46 53 -45 -46 -19 52 51 -2 -39 -49 55 57 -44 56 -7 -1
right_child=2 7 3 -5 10 6 21 -9 36 11 12 -13 -14 14 -16 23 26 19 30 20 -22 -23 -24 -25 -26 -27 41 -29 39 -31 -32 -33 -34 34 -36 -37 -38 38 -40 -41 -42 -43 54 44 45 -47 -48 48 -50 -51 -52 -53 -54 -55 -56 -57 -58 -59
leaf_value=-0.047773666246819127 -0.047608840739136793 -0.028938483268211131 0.0029013735918596525 -0.011929357907173893 0.014965225435254973 -0.047657837633292705 -0.011118922536815663 -0.021150352597660443 0.049867074291834269 -0.028605084694638412 0.066997154209505957 0.068215710524207981 -0.00039679116546808532 0.0066717195003423609 -0.021635816528578312 0.040558830647747193 0.030164563355066135 0.098639142667750312 0.039078647032737501 0.050057875583776515 0.025394900934044524 0.07162878752123493 0.082398917844410557 0.09835046566394981 -0.0039654917827773939 0.099564001832812637 -0.03699156184948009 -0.041129578020629685 0.0044847601068717467 -0.00093059270719558556 0.10667651003600792 0.060882232498251004 0.037796705164263512 0.099905419169122614 0.06014272208606547 0.066347191695368582 0.093056958015365787 -0.047957959278495055 0.022557069651980823 0.047255770641030787 -0.012288064936323791 -0.0040004709015292114 0.10283633663926682 -0.047340655227703324 -0.044466653741794343 0.0079020212825622015 0.073117636840647912 -0.030496555385408925 -0.014630252545602275 -0.028499562517221418 -0.031940158517608487 -0.046367575102921728 -0.036045122646225135 -0.037975502147665333 0.11084032971311418 -0.04763776249823113 -0.039473378118296772 -0.044947638778956155
leaf_weight=856.17571879923344 68.324066177010536 34.692078769207001 74.358251735568047 68.4671521037817 35.618242703378201 35.029006317257881 44.380259394645691 66.327458783984184 32.957568794488907 31.927679635584354 54.245481938123703 40.567566081881523 62.429464153945446 43.6214519739151 34.86886190623045 38.960503086447716 32.552788935601711 35.164930157363415 36.616295725107193 36.409042090177536 48.035170167684555 30.097929790616035 31.520861655473709 45.532425008714199 38.283354811370373 65.195144340395927 33.388548836112022 31.188109166920185 29.170273423194885 33.843640863895416 42.762719005346298 58.66364249587059 29.444189511239529 52.556490577757359 64.426709920167923 41.499781563878059 60.216534972190857 43.638075284659863 24.899243623018265 29.514360830187798 24.292834348976612 43.997876673936844 40.65810914337635 79.295246012508869 26.340612597763538 24.552050687372684 31.449084706604481 26.149616859853268 22.053139254450798 30.462995909154415 24.446487076580524 39.175965435802937 35.492692641913891 33.397370681166649 83.161545127630234 181.4228433445096 26.309499882161617 62.250196203589439
leaf_count=5254 408 215 397 194 295 283 299 249 204 271 295 278 216 327 106 273 258 224 220 223 182 177 199 295 230 397 179 142 183 263 278 392 206 342 355 251 373 288 207 222 223 297 246 561 192 224 186 258 162 232 242 364 246 228 514 1445 188 372
internal_value=-0.000271879 -0.0254166 0.0429357 0.0561539 0.0611506 -0.0361932 -0.0212772 0.0292683 0.0407695 -0.00775777 0.0661937 0.0129371 0.0309671 0.0232613 0.0343833 0.049635 -0.030637 0.0717278 0.0602257 0.0825746 0.0637842 0.0267744 0.0399882 0.0717816 0.0298494 0.0818905 -0.00390996 -0.00551517 0.00677488 -0.0375682 0.0771077 0.0435697 0.00841535 0.0688116 0.0780768 0.0946651 0.0778497 -0.0442851 -0.024899 0.0260395 -0.0407471 -0.0182639 0.100798 -0.0459487 -0.0363775 -0.0192366 0.0867179 -0.0426341 -0.033674 -0.0417509 -0.0422619 -0.0400708 -0.0454347 -0.0472538 0.108297 -0.0467921 -0.0442173 -0.047587
internal_weight=3432.48 2169.8 1262.68 1001.52 933.054 1812.63 637.631 357.177 290.849 261.155 858.696 162.368 116.675 197.675 162.983 128.114 533.708 742.021 360.448 381.573 149.639 103.922 164.086 84.4929 132.565 101.604 109.939 121.8 90.6123 423.769 196.362 94.2819 73.8244 153.599 116.983 231.933 93.1741 1175 92.9838 58.6846 389.926 77.3864 190.434 1082.01 130.188 50.8927 66.614 365.633 87.3787 98.7871 68.0846 65.3256 278.254 951.823 123.82 242.761 61.3385 918.426
internal_count=21830 14458 7372 5636 5442 12416 4848 2042 1793 1736 5045 1096 511 1216 1001 895 4166 4534 2311 2223 802 682 1116 568 917 620 734 818 676 3432 1195 687 505 917 697 1421 577 7568 737 405 3169 476 1170 6831 977 416 410 2946 784 640 530 622 2162 5854 760 1916 471 5626
is_linear=0
shrinkage=0.05


Tree=14
num_leaves=56
num_cat=0
split_feature=1 10 45 5 12 1 54 54 32 32 45 39 45 12 5 11 52 45 75 39 38 31 1 38 52 1 73 18 18 25 25 45 1 49 39 74 2 17 25 10 56 52 2 45 1 45 38 52 3 74 12 12 12 68 1
split_gain=1407.53 578.602 273.248 159.249 127.184 105.938 102.685 85.0004 73.0848 63.2466 61.2904 82.6292 51.4906 48.89 46.7771 41.6671 43.5935 51.325 34.0724 28.9203 28.1369 26.5639 29.376 26.4142 29.6747 25.6725 25.1744 24.9101 27.2989 21.5511 40.9254 21.3117 20.7354 20.735 19.301 17.4149 13.8524 11.7903 10.0709 7.76147 6.47252 6.23321 5.09168 8.72755 14.2057 3.17959 2.65909 1.79851 1.67388 1.12122 0.755308 0.419785 0.347956 0.219343 0.0210955
threshold=-0.0037296789526448915 -0.023017177060560799 2.6956039349742283e-05 -0.067343192200001442 -0.016496225578793374 -0.010365829597687009 -7.0127625011255615e-05 -9.5116025753924196e-05 -1.7864586561689316e-05 -1.402894469063059e-05 9.1071613031709352e-06 -3.2450399339659951e-06 -0.00022534121189155085 -0.028153810306864546 0.034374214213861255 0.00019203875412952644 3.9473945890305575e-05 0.00012221627849109523 -0.12332942333262228 -4.789815481555761e-07 -0.00023949732940923193 -0.00026661510412644699 0.001264737136886885 0.00016354498465438383 -7.3099994988208943e-05 0.001264737136886885 0.0032995082468812702 -0.00023566281220035624 -9.9444936983071811e-05 -7.7820161149324472e-05 -9.7181289751110078e-06 -6.1169088703199445e-05 0.0013844034085673646 21.500000000000004 -2.0612980912872374e-06 0.00042622252235093505 -1.6568948210054055 -0.021527015723720202 -2.1670974095600159e-05 -0.016950082885032889 21.500000000000004 -4.320878404084759e-05 -0.61309396425616003 1.6616671697382118e-05 0.00018445383922873818 3.2054780915006666e-05 -0.00017479867273057788 -1.6767504968567402e-05 0.0074201477321942837 -0.00056248642519738355 -0.0318474131864315 -0.012978294392467961 0.0016101592892560081 0.11266126394993577 -0.0025830950108438038
decision_type=2 2 2 2 2 2 2 2 2 2 2 2 2 2 2 2 2 2 2 2 2 2 2 2 2 2 2 2 2 2 2 2 2 2 2 2 2 2 2 2 2 2 2 2 2 2 2 2 2 2 2 2 2 2 2
left_child=2 7 3 -1 10 8 20 9 -5 -2 11 -3 26 -14 23 16 17 33 -11 29 -7 -20 38 24 -8 -9 -10 -22 -29 -15 -31 -26 34 -4 -12 41 -13 -6 -23 -39 -38 52 43 44 -41 -34 -44 -17 -46 -45 -47 -48 -21 -51 -53
right_child=1 4 15 5 37 6 14 25 12 18 32 36 13 19 -16 47 -18 -19 21 35 27 22 -24 -25 31 -27 -28 28 -30 30 -32 -33 45 -35 -36 -37 40 39 -40 42 -42 -43 46 49 48 50 51 -49 -50 53 -52 54 -54 -55 -56
